%YAML:1.0
opencv_ml_svm:
   format: 3
   svmType: EPS_SVR
   kernel:
      type: LINEAR
   C: 1.0000000000000000e-02
   p: 1.0000000000000001e-01
   term_criteria: { epsilon:1.0000000000000000e-03, iterations:1000 }
   var_count: 3780
   sv_total: 1
   support_vectors:
      - [ 1.29433582e-02, 1.27743762e-02, 6.41944492e-03, 8.17072485e-03,
          -1.03372419e-02, -1.27752479e-02, -8.52543488e-03,
          1.13422470e-02, 1.93240456e-02, 1.88229908e-03, 1.01993773e-02,
          1.77124552e-02, 5.78486221e-03, -1.84378084e-02,
          -1.35686062e-02, -9.99668706e-03, -9.18406120e-04,
          7.68465409e-03, 8.34450219e-03, 3.31251789e-03, 1.97153930e-02,
          6.46459498e-03, -1.37785384e-02, -5.71169085e-06,
          -7.04275584e-03, 1.05199765e-03, 9.81137715e-03,
          -3.14627867e-03, 1.15802083e-02, 3.33898738e-02,
          2.13794652e-02, -8.39804858e-03, -1.48639409e-02,
          -8.89854599e-03, -1.08957840e-02, 1.95986987e-03,
          7.12909643e-03, 2.40743477e-02, 2.75900606e-02, 7.06662424e-03,
          -1.77067015e-02, -1.63235888e-02, -1.21763498e-02,
          -2.11440539e-03, 4.78650909e-03, -2.89001712e-03,
          1.05731525e-02, 1.58043057e-02, 1.83600225e-02,
          -1.06772054e-02, -2.18016915e-02, -7.75715569e-03,
          -7.63545511e-03, -2.53252196e-03, -1.46092568e-03,
          2.12206263e-02, 3.21196988e-02, 2.73428857e-02,
          -8.38754792e-03, -2.02375222e-02, -8.17537960e-03,
          -1.55830048e-02, -2.72568781e-03, -1.00143580e-03,
          2.32925056e-03, -2.59395153e-03, 1.74354799e-02,
          -6.88606827e-03, -3.16566192e-02, -1.53378909e-02,
          -9.78403911e-03, -3.28627555e-03, 8.79640039e-03,
          6.52748486e-03, 3.69760278e-03, 1.03085516e-02,
          -1.51659101e-02, -8.42784811e-03, 1.27429934e-02,
          1.35334181e-02, 1.19461734e-02, 1.22477124e-02, 1.03450092e-02,
          -3.00745200e-03, -1.83041173e-03, -1.64911319e-02,
          -6.87879929e-03, 2.76822634e-02, 2.28236802e-02,
          1.57791395e-02, -3.94960400e-03, -1.01088434e-02,
          -7.39817368e-03, 1.66811515e-02, -1.13492215e-03,
          -1.85906105e-02, 8.92583653e-03, 8.61322600e-03,
          6.45848317e-03, -1.06537919e-02, -7.16560567e-03,
          -7.47128110e-03, 8.67510028e-03, -6.67015370e-03,
          -2.43503060e-02, 1.57895836e-03, 1.97790912e-03,
          -5.34827588e-03, 1.14184711e-02, 1.49191041e-02,
          9.87058599e-03, 3.44604603e-03, 1.01371226e-03, 2.12845509e-03,
          3.04006413e-02, 2.63629612e-02, 1.86262000e-02, 5.51947451e-04,
          1.28861284e-02, 1.63106695e-02, 1.50265750e-02,
          -5.01087960e-03, -7.49618397e-04, 7.78751029e-03,
          7.13920570e-04, 6.61504269e-03, 9.10936738e-04, 4.74921660e-03,
          7.32075004e-03, 4.91202390e-03, 4.05270234e-03,
          -1.71651412e-02, -7.02407211e-03, -2.56721652e-03,
          3.31968488e-03, -2.44445098e-03, 2.01913372e-05,
          8.34053569e-03, 1.04808668e-02, -9.21288878e-03,
          -9.41639859e-03, -1.04198540e-02, -1.01755969e-02,
          1.78257201e-03, 4.32326319e-03, 1.04984483e-02, 1.35989925e-02,
          6.50531333e-03, -1.28153933e-03, 1.36504779e-02,
          4.93610837e-03, 5.35747642e-03, 9.62774362e-03, 1.25573277e-02,
          1.38789369e-03, -8.62898864e-03, -1.33010950e-02,
          -1.10895615e-02, 1.79405324e-02, 2.60305107e-02,
          3.00601851e-02, 2.44462267e-02, -1.20461490e-02,
          -9.33529157e-03, 1.73366151e-03, -1.14960573e-03,
          4.06610267e-03, 1.39481826e-02, 8.32147244e-03,
          -2.31966167e-03, -1.15006238e-04, -1.07740127e-02,
          -1.22910952e-02, -1.01638203e-02, -1.16205774e-02,
          -6.22470723e-03, 1.22631397e-02, 1.86769422e-02,
          3.04962508e-03, -1.30819646e-03, 9.33597505e-04,
          -9.25189909e-03, -1.87275000e-02, -2.64362823e-02,
          -1.95904858e-02, 1.76507011e-02, 1.75566766e-02,
          2.39605829e-02, 1.46235991e-02, -1.85042096e-03,
          4.92314284e-04, -6.30136393e-03, -1.16825122e-02,
          7.27178995e-04, 4.45910506e-02, 2.06018835e-02, 2.58144159e-02,
          1.36350887e-02, -6.73576910e-03, -1.18458113e-02,
          -6.71389978e-03, -7.40225334e-03, -3.84250376e-03,
          2.28100754e-02, 1.59257837e-02, 1.38860429e-02,
          -2.22134287e-03, -5.44930948e-03, -6.17479114e-03,
          -2.88600568e-03, 1.02693192e-03, 2.26907642e-03,
          3.50901932e-02, 1.77427828e-02, 1.91374719e-02, 9.40500177e-04,
          7.40743103e-03, 1.05570843e-02, -4.23540175e-03,
          -2.26165652e-02, -1.08194062e-02, 1.96725130e-02,
          1.73019096e-02, 2.16982737e-02, 1.61505900e-02, 2.19069384e-02,
          9.79277026e-03, -1.45693310e-02, -2.24649794e-02,
          -9.78219695e-03, 1.33306812e-02, 2.19667349e-02,
          3.01758982e-02, 2.29002796e-02, 3.97482514e-03,
          -1.82685850e-04, -5.91736659e-03, -2.05579326e-02,
          -7.39429239e-03, 2.51262262e-02, 1.56275108e-02,
          8.38491321e-03, 6.33210037e-03, 1.96014177e-02, 1.34566268e-02,
          -3.57945130e-04, -1.90976560e-02, -1.11686932e-02,
          1.89688466e-02, 1.94147732e-02, 2.78361775e-02, 2.02059988e-02,
          1.13584697e-02, 9.72054992e-03, 2.63652448e-02,
          -4.64921305e-03, -2.10952107e-02, -6.49908045e-03,
          -8.54786485e-03, -2.86638900e-03, 1.06893620e-02,
          6.46767160e-03, 1.60797592e-02, 3.43750529e-02, 1.33225629e-02,
          -7.74802547e-03, -8.84412415e-03, -4.59084613e-03,
          -9.47172940e-03, 5.34781313e-04, 1.37885464e-02,
          9.56167188e-03, 2.17372794e-02, 5.80776110e-03,
          -1.85045823e-02, -6.39470201e-03, -5.09480340e-03,
          -5.86753849e-05, 1.02329366e-02, 1.33434972e-02,
          1.60976686e-02, 2.76755672e-02, 1.96489077e-02,
          -1.81762073e-02, -2.31147744e-03, 7.23836711e-03,
          3.10987211e-03, 8.73487256e-03, -3.16033722e-03,
          1.47326933e-02, 2.18778159e-02, 2.62838677e-02,
          -1.00569166e-02, -2.38731969e-02, -7.94093683e-03,
          -4.26503038e-03, -1.08526007e-03, -2.44510034e-03,
          -6.48659654e-03, -8.73107649e-03, 2.29843166e-02,
          -9.47995018e-03, -3.14525291e-02, -5.49176941e-03,
          -1.37610990e-03, -2.43322327e-04, 8.38386081e-03,
          1.64389051e-02, 1.31780608e-02, 2.94408184e-02,
          -7.82408006e-03, -1.75697189e-02, 1.66171521e-03,
          6.49130531e-03, 5.13530895e-03, 4.46570525e-03,
          -1.77414785e-03, 1.01573374e-02, 3.16985175e-02,
          -1.29133184e-02, -2.26622913e-02, 1.40281496e-04,
          1.07698003e-02, 6.95136469e-03, -8.87304638e-03,
          -1.39797395e-02, -6.37964904e-03, 2.54880562e-02,
          1.30286822e-02, -2.74897949e-03, 1.53240105e-02,
          1.51853561e-02, -2.10585742e-04, -1.70459487e-02,
          -1.23132300e-02, -1.78331621e-02, 1.47901317e-02,
          2.98723287e-04, -1.69895794e-02, -2.03215145e-03,
          3.10700736e-03, -7.32484646e-03, -9.63372923e-03,
          -1.52813010e-02, -5.98584674e-03, 2.61961948e-02,
          -6.12598425e-03, -8.10703915e-03, 1.26489643e-02,
          2.35861763e-02, 3.89853655e-03, -8.00840743e-03,
          -1.22227445e-02, -1.20036583e-02, 2.52233222e-02,
          -5.08177513e-03, -1.42606646e-02, -5.10098832e-03,
          9.38763097e-03, 5.74669382e-03, 1.94537139e-03, 6.18831860e-03,
          1.00862365e-02, 2.12910194e-02, 1.45385368e-02,
          -9.66017321e-03, -1.17212031e-02, -2.02525221e-03,
          2.64751259e-03, -6.48700446e-03, -3.51902709e-04,
          8.91533308e-03, 1.58955697e-02, 1.77002531e-02, 2.07757391e-03,
          -6.94950111e-03, -1.20661156e-02, -2.70759128e-03,
          -3.82484845e-03, 1.15199049e-03, 7.42603699e-03,
          1.88505240e-02, 2.03703204e-03, -9.23279952e-03,
          -1.85012526e-03, 9.95033071e-04, -4.17768117e-03,
          -1.74332708e-02, -7.21010892e-03, -5.55200363e-03,
          1.52588347e-02, 1.04953442e-02, -3.54637369e-03,
          -1.23565244e-02, -1.91190131e-02, -1.97820570e-02,
          -1.69893578e-02, -1.16659515e-02, 6.81827310e-03,
          5.01927978e-04, 2.66311783e-02, 2.85640154e-02, 7.25047849e-03,
          -1.10841561e-02, -1.40352445e-02, -1.74829625e-02,
          -1.78895537e-02, 5.31848753e-04, -7.66403927e-03,
          1.59592740e-02, 2.39306055e-02, 1.60824861e-02,
          -4.18682164e-03, -9.27182753e-03, -2.21365411e-02,
          -1.77315287e-02, -7.16504222e-03, 7.30738509e-04,
          2.46322211e-02, 1.49016064e-02, -6.29185745e-03,
          -2.36423258e-02, -2.19211597e-02, -1.54097378e-02,
          -1.05297063e-02, 1.15078362e-02, -3.21041862e-03,
          1.53532410e-02, 1.76665988e-02, 7.95017648e-03,
          -1.12011507e-02, -9.57124773e-03, -1.20367138e-02,
          -1.15424134e-02, 4.84534865e-03, 2.88901967e-03,
          8.93520098e-03, 1.24834366e-02, 7.64989248e-03, 3.30530643e-03,
          -9.67796147e-03, -4.69479570e-03, -5.86100097e-04,
          3.84713314e-03, 1.00622131e-02, 1.05947386e-02, 3.73792537e-02,
          1.00052115e-02, 4.07749880e-03, -8.28394759e-03,
          -1.58370454e-02, -6.67605642e-03, 5.26674045e-03,
          3.65574728e-03, 1.29040265e-02, 1.58079143e-03,
          -2.39334395e-03, -8.48223455e-03, -9.97921359e-03,
          -1.63254067e-02, -4.29044710e-03, 8.12695269e-03,
          1.45497331e-02, 9.22503602e-03, 2.86602937e-02, 9.27569869e-04,
          -9.67441499e-03, -1.44718532e-02, 1.09917088e-03,
          7.19378004e-03, 1.38639398e-02, 3.55164288e-03, 1.52556570e-02,
          3.31717320e-02, 2.03479696e-02, 9.70245805e-03,
          -1.39116379e-03, 2.54030689e-03, 4.74290131e-03,
          1.18678501e-02, -1.86248124e-02, -6.18147524e-03,
          3.82641815e-02, 3.24576907e-02, 2.23948509e-02,
          -5.56510349e-04, -4.12402768e-03, 7.69075705e-03,
          1.24597484e-02, -9.46838316e-03, -2.36142520e-03,
          2.56391317e-02, 1.62791684e-02, 9.75398161e-03,
          -5.53799444e-04, -1.41876861e-02, 6.92353875e-04,
          -5.49945282e-03, -4.00147438e-02, -2.25501172e-02,
          1.21178757e-02, 2.17211507e-02, 1.67485215e-02,
          -1.04423063e-02, -1.13956095e-03, 4.54957568e-04,
          1.15153063e-02, 1.29176595e-03, -1.77452136e-02,
          -2.84902123e-03, 5.14927320e-04, 5.08613046e-03,
          3.15932604e-03, 9.68586840e-03, 1.06221838e-02, 2.06705481e-02,
          1.27804978e-02, -2.40364559e-02, -3.08469217e-03,
          1.19081074e-02, 1.12428851e-02, 8.83716624e-03,
          -7.44545599e-04, 6.26417622e-03, 1.48653612e-02,
          1.16845677e-02, -1.10314544e-02, 1.26977535e-02,
          1.71723962e-02, 7.15123210e-03, 4.18846635e-03, 1.05883731e-02,
          9.57175158e-03, 1.71727594e-02, 1.83435641e-02,
          -2.14037076e-02, -2.29105982e-03, 1.02575617e-02,
          1.65699106e-02, 1.03436522e-02, 1.99216753e-02, 2.24839766e-02,
          1.49469683e-02, 1.53904306e-02, -2.47618537e-02,
          -1.98051706e-02, 7.06262537e-04, 1.27067100e-02,
          1.24637829e-02, 1.08558964e-02, 7.29679177e-03, 1.11112315e-02,
          1.76646095e-02, -2.42710020e-02, -2.77346671e-02,
          -7.97048863e-03, 7.47156097e-03, 1.08552789e-02,
          5.18511515e-03, 1.68055110e-03, -1.76824071e-03,
          1.51671357e-02, -2.05259826e-02, -1.22120255e-03,
          9.98582970e-03, 2.24532001e-02, 1.04034273e-02,
          -1.43376719e-02, -4.49362164e-03, 1.18479802e-05,
          2.47420128e-02, -8.10861588e-03, -6.76644547e-03,
          -6.57245237e-03, 1.00722229e-02, -9.04254988e-03,
          -3.83524486e-04, -4.69281198e-03, 3.96371260e-03,
          2.33204793e-02, -2.53930222e-02, -2.15647742e-02,
          4.54798061e-03, 1.95207391e-02, 6.12282380e-03,
          -1.29420161e-02, -2.08663009e-02, -1.67154651e-02,
          1.50802536e-02, -1.44444378e-02, -1.23683363e-02,
          1.10586325e-03, 6.61462126e-03, -1.38118153e-03,
          -1.56948436e-02, 8.51426157e-04, 1.03233065e-02,
          4.57324199e-02, -1.02471868e-02, 9.02655907e-03,
          4.49084630e-03, 1.17931347e-02, -1.19674113e-02,
          -2.56461836e-02, -1.52533613e-02, -1.48775475e-02,
          1.48285497e-02, 5.82233444e-03, 1.50990104e-02, 5.48856892e-03,
          4.13681002e-04, -2.26742197e-02, -1.23937614e-02,
          -1.03244130e-02, -3.49554932e-03, 2.60868464e-02,
          8.50008393e-04, 1.18625807e-02, 1.09290620e-02, 4.36240295e-03,
          -1.02005461e-02, -2.70549282e-02, -2.49491446e-02,
          -2.71437112e-02, 6.03033183e-03, 1.26516242e-02,
          1.33518940e-02, -7.82543235e-03, -2.13251524e-02,
          -2.58425232e-02, -3.51602957e-02, -2.38767024e-02,
          -1.05437618e-02, 2.17556711e-02, 2.06838958e-02,
          3.86387482e-02, 2.66272966e-02, 2.50418973e-03,
          -2.70221718e-02, -4.35581058e-02, -4.09683734e-02,
          -3.28420252e-02, 5.39644482e-03, 2.87567731e-02,
          3.15387100e-02, -1.37366413e-03, -2.23167464e-02,
          -3.64175327e-02, -3.17599699e-02, -2.53562294e-02,
          -2.49268301e-02, -8.87564290e-03, 3.66512313e-02,
          1.88234616e-02, -4.78992332e-03, -2.56003793e-02,
          -2.86555234e-02, -1.59214530e-02, -1.11072585e-02,
          -9.77929123e-03, -5.01162419e-03, 3.17785703e-02,
          2.54469980e-02, 2.30296073e-03, -1.31388903e-02,
          -9.49295517e-03, -3.69482040e-02, -3.50018628e-02,
          -2.50966158e-02, -5.88610722e-03, 3.25428098e-02,
          3.84747870e-02, 3.51660792e-03, -1.99381299e-02,
          -3.46553177e-02, -2.78219562e-02, -3.12461443e-02,
          -2.86958404e-02, -2.07225066e-02, 3.15820985e-02,
          4.16410267e-02, 1.65970214e-02, -6.37643691e-03,
          -1.67917721e-02, -1.04772234e-02, -9.76443198e-03,
          -6.50325185e-03, -1.21023867e-03, 2.33091023e-02,
          6.69259392e-03, -3.47766816e-03, -8.60674400e-03,
          -8.68729036e-03, -1.67553425e-02, -1.11385789e-02,
          -8.81532789e-04, 1.25770839e-02, 2.41293535e-02,
          3.13634947e-02, 2.99783726e-03, -1.47175817e-02,
          -1.50695043e-02, -1.31661678e-02, -1.72795095e-02,
          -1.60534885e-02, -2.27178913e-02, 1.73162352e-02,
          1.84690934e-02, 1.60389654e-02, -8.01816396e-03,
          -1.14576323e-02, -5.29781729e-03, -5.53346751e-03,
          6.03080075e-03, -1.15464861e-02, 1.81187596e-02,
          2.77454164e-02, 1.46557381e-02, -9.83738154e-03,
          -1.20087201e-02, -4.08621924e-03, -2.68859067e-03,
          3.23597039e-03, -3.53037962e-03, 1.11797554e-02,
          2.13763118e-02, 1.60460547e-02, 5.28113265e-03,
          -2.54764990e-03, -4.41100309e-03, 5.29508165e-04,
          1.68283621e-03, -3.11801452e-02, -1.52066415e-02,
          -4.37917042e-04, 1.16167860e-02, 1.24150841e-02,
          2.60185008e-03, -5.40961185e-03, -7.67785637e-03,
          5.36634540e-03, -7.71192042e-03, 1.12918261e-02,
          3.05207707e-02, 1.80465207e-02, -7.34727539e-04,
          -9.85611137e-03, -9.74846911e-03, -7.81503879e-03,
          -4.50018840e-03, -3.07989940e-02, -1.81393744e-03,
          1.42272040e-02, 3.33647267e-03, 7.20558502e-03,
          -5.32596046e-03, -4.52631805e-03, 1.41856188e-04,
          4.47347667e-03, 9.19531938e-03, -5.46984794e-03,
          2.46970002e-02, 1.55637506e-02, 7.16513954e-03,
          -1.86174421e-03, -7.19431671e-04, 1.46950362e-03,
          1.38061605e-02, 1.73514746e-02, -1.58204399e-02,
          8.82898737e-03, 1.33156860e-02, 1.64881814e-02, 6.66909327e-04,
          -9.46827873e-04, -4.75056749e-03, 6.07466383e-04,
          7.15579418e-03, -1.32775987e-02, 3.07749342e-02,
          1.36704901e-02, 8.20926204e-03, -2.28136501e-04,
          1.19377277e-03, -3.73389386e-03, 2.39231647e-03,
          -2.41012080e-03, -1.72889233e-02, 1.74776334e-02,
          1.88869685e-02, 2.00015139e-02, 7.16514280e-03,
          -1.11251473e-02, -1.02048209e-02, 3.80358542e-03,
          1.50398994e-02, -2.62432685e-03, 1.00332070e-02,
          1.82759482e-02, 2.45338865e-02, 4.36100736e-03,
          -2.57147495e-02, -1.08970292e-02, 2.95929116e-04,
          3.11322119e-02, 1.35946891e-03, 1.59298684e-02, 6.52338890e-03,
          9.26770829e-03, -1.49898147e-02, -9.74253938e-03,
          -1.36860432e-02, 6.90891454e-03, 9.45581216e-03,
          -1.67333074e-02, -4.88773873e-03, 7.30541954e-03,
          2.42176130e-02, 6.50289934e-03, -1.71964932e-02,
          -1.33625939e-02, -6.01859996e-03, 2.96965092e-02,
          -2.02708342e-03, 1.65906940e-02, 9.61958710e-03,
          1.21195922e-02, -7.58369965e-03, -2.21811216e-02,
          1.82477885e-03, 3.54590523e-03, 4.13645767e-02, 9.62916762e-03,
          2.07206979e-02, -1.55483058e-03, -5.71741303e-03,
          -2.81648673e-02, -2.85424683e-02, -1.51309483e-02,
          -1.07099582e-02, 9.15503968e-03, -2.18007294e-03,
          1.93125121e-02, -2.95081874e-03, -1.66281834e-02,
          -3.48216221e-02, -1.40616419e-02, 2.47716112e-03,
          -8.14015139e-03, 2.86874566e-02, -5.20647503e-03,
          2.93880031e-02, 1.26447696e-02, 2.36707740e-03,
          -1.52400453e-02, -2.64015626e-02, -2.64445413e-03,
          -1.38995042e-02, 9.57069825e-03, -1.34828901e-02,
          1.69997141e-02, 1.08071486e-03, -9.15407948e-03,
          -2.43669748e-02, -4.14466225e-02, -2.82133538e-02,
          -1.04987202e-02, 1.68606695e-02, 1.71707384e-02,
          3.64753827e-02, 1.13992449e-02, -1.33184660e-02,
          -3.88220772e-02, -4.63350862e-02, -3.60800847e-02,
          -2.40057278e-02, 9.25633218e-03, 1.79063380e-02,
          3.06142159e-02, -1.00737168e-02, -3.11242379e-02,
          -4.59806770e-02, -2.97030229e-02, -1.21909669e-02,
          -4.93616518e-03, 4.86216275e-03, 5.96488640e-03,
          2.66292933e-02, 9.52539314e-03, -7.76131125e-03,
          -2.86368877e-02, -3.17711830e-02, -2.13803090e-02,
          -1.68578885e-02, 7.65943248e-03, 1.25623662e-02,
          2.78965570e-02, -1.19363675e-02, -1.77019797e-02,
          -3.30271274e-02, -3.66832390e-02, -3.15980762e-02,
          -2.23791301e-02, -3.84666701e-03, 2.21861638e-02,
          2.79755853e-02, -1.61772687e-03, -1.91777367e-02,
          -3.59736793e-02, -1.84590127e-02, -2.51884647e-02,
          -2.51870006e-02, -2.46358383e-02, 1.43852700e-02,
          2.80212816e-02, 8.95140693e-03, -2.20146985e-03,
          -1.01632997e-02, -2.61723474e-02, -1.97593737e-02,
          -4.58067330e-03, 2.39133928e-03, 1.41032590e-02,
          2.86657140e-02, -2.55096960e-03, -1.61459371e-02,
          -2.42215320e-02, -1.17365494e-02, -1.61061399e-02,
          -6.38900138e-03, -4.53557214e-03, 1.95740964e-02,
          1.83280632e-02, 8.32829857e-04, -5.80764841e-03,
          -9.79334489e-03, 7.88383768e-04, -1.19319800e-02,
          -1.20398421e-02, -2.91081797e-02, -1.56300259e-03,
          1.64502449e-02, 8.20351578e-03, -3.70653695e-04,
          6.68623892e-04, 3.07548791e-03, -4.02926002e-03,
          -5.42513188e-03, -2.44638193e-02, 5.21956431e-03,
          1.88951027e-02, 6.85405592e-03, 2.58153677e-03,
          -2.60031037e-03, 6.51048683e-03, 1.63576275e-03,
          2.23795441e-03, -1.67418402e-02, 1.87419564e-03,
          1.44557599e-02, -1.71872450e-03, 2.26394879e-03,
          6.14342280e-03, -1.71472912e-03, -3.26258177e-03,
          3.26015550e-04, -1.70135442e-02, 1.45392036e-02,
          3.00050545e-02, 5.05013857e-03, 4.69364412e-03, 2.85574608e-03,
          -5.49183507e-03, -7.24452036e-03, -5.19268040e-04,
          -1.45385880e-02, 2.70396713e-02, 3.76651548e-02,
          2.54516788e-02, 6.35703513e-03, -7.50648323e-03,
          -1.22162439e-02, -1.33340629e-02, -1.01663377e-02,
          -2.52649710e-02, 1.09917633e-02, 2.93046739e-02,
          9.99519043e-03, 1.21680591e-02, -4.01221821e-03,
          -1.25789763e-02, -1.38891619e-02, -9.52954497e-03,
          -2.27651410e-02, 2.97398288e-02, 4.03710082e-02,
          2.02640835e-02, 5.56074968e-03, -5.38793812e-03,
          -1.62255391e-02, -2.29102224e-02, -1.20517993e-02,
          -2.64492519e-02, 1.66702084e-02, 1.81061495e-02,
          4.57459642e-03, -4.92216146e-04, -1.54262371e-02,
          1.25892051e-02, 4.61823866e-03, 4.10145847e-03,
          -4.97635629e-04, -1.45118097e-02, 2.07427442e-02,
          6.88166125e-03, 1.06431004e-02, 1.03908554e-02, 1.97563972e-02,
          8.50446895e-03, -1.11077365e-03, -1.42585877e-02,
          -3.30433287e-02, 7.60808401e-03, 1.85734686e-02,
          2.51341742e-02, 2.16837395e-02, 1.96262673e-02, 1.67380273e-02,
          1.07970284e-02, -9.88732907e-04, -3.25521901e-02,
          2.13062158e-03, -5.55953896e-03, 1.09810866e-02,
          1.76277496e-02, 3.36787738e-02, 2.57588066e-02, 4.97050630e-03,
          -1.89923346e-02, -4.27738279e-02, -5.50782122e-03,
          1.66880935e-02, 3.56009640e-02, 3.65964100e-02, 7.99560640e-03,
          -2.64687999e-03, -6.05699373e-03, 8.30056053e-03,
          -4.02631983e-02, -7.77960476e-03, 3.69148399e-03,
          1.37339644e-02, 1.28798708e-02, 1.62538490e-03,
          -3.33074993e-03, -2.18866207e-03, 2.83300709e-02,
          -9.12040286e-03, 2.05555279e-02, 2.15393119e-02,
          2.12792195e-02, 6.73120236e-03, 2.53561828e-02, 1.12887016e-02,
          -1.19430758e-02, -1.84750129e-02, -3.96426395e-02,
          -2.05804198e-03, 1.18887285e-02, 1.65568441e-02,
          2.53977943e-02, 1.37905395e-02, 2.86626001e-03,
          -7.75464997e-03, 2.48023849e-02, -1.92472823e-02,
          2.40114704e-02, 2.25329176e-02, 2.19239946e-02, 1.91658325e-02,
          -1.00118285e-02, -3.08009330e-03, -1.52096367e-02,
          1.96679197e-02, -1.02140279e-02, 2.47460213e-02,
          1.09554343e-02, 6.85749343e-03, -7.02961208e-03,
          -2.14377679e-02, 2.97678052e-03, -9.34293680e-03,
          8.43586866e-04, -1.69874188e-02, 8.19882005e-03,
          -5.21085365e-03, -1.14841107e-02, -1.87025908e-02,
          -4.73327324e-04, 5.00778109e-03, -1.25160934e-02,
          2.74858400e-02, -4.78736544e-03, 3.28504257e-02,
          1.66306216e-02, 1.36074936e-02, 7.88204465e-03,
          -1.67637542e-02, 4.37623309e-03, -5.21062687e-03,
          1.45240631e-02, -1.27019836e-02, 1.52502181e-02,
          -7.60823349e-03, -1.21589256e-02, -1.88791379e-02,
          -1.70931201e-02, -2.84616323e-03, 4.48775711e-04,
          4.34780354e-03, 2.95553287e-03, 1.98827069e-02, 1.45416125e-03,
          -1.11014787e-02, -1.85496937e-02, -1.93682704e-02,
          -1.23105319e-02, -6.86779479e-03, -3.43564455e-03,
          4.56028851e-03, 2.09346823e-02, -1.23684434e-02,
          -1.83997173e-02, -2.60034651e-02, -1.63050815e-02,
          4.87091625e-03, 3.83853403e-05, 1.81494318e-02,
          -3.12192412e-03, 2.06085108e-02, -9.79244057e-03,
          -2.19772179e-02, -2.07361728e-02, -2.48612482e-02,
          -7.49702286e-03, -5.49082411e-03, 9.86626092e-03,
          9.25459247e-03, 1.81764383e-02, -1.32664088e-02,
          -2.40987446e-02, -2.97678057e-02, -1.68046430e-02,
          -7.93592539e-03, -1.06662439e-04, -6.31666649e-03,
          1.52433291e-02, 2.64984872e-02, -6.55324897e-03,
          -1.05190994e-02, -2.09548511e-02, -1.61334162e-03,
          -1.76958193e-03, 6.20618172e-04, -1.01957135e-02,
          1.35544240e-02, 1.83665194e-02, -2.88896821e-03,
          4.85405233e-03, -7.19788391e-03, -1.84505489e-02,
          -4.14456148e-03, -1.89859490e-03, -7.91718159e-03,
          6.11952972e-03, 2.13142019e-02, 1.80496555e-03,
          -5.10324212e-03, -1.87978577e-02, -9.07560252e-03,
          -3.13447963e-04, -5.45345852e-03, -1.42909084e-02,
          4.22801269e-04, 1.52132623e-02, -6.86544590e-05,
          5.54293208e-03, -7.30156386e-03, -1.36202772e-03,
          1.81351544e-03, 1.30599912e-03, -2.15105582e-02,
          1.87435828e-03, 6.49639778e-03, -5.34914806e-03,
          1.55708287e-03, -2.86059082e-03, -3.64924083e-03,
          -3.95916123e-03, 6.64912118e-03, -6.81637507e-03,
          1.51868248e-02, 2.68598571e-02, -1.13102223e-03,
          -3.09463521e-03, -2.60248478e-03, -5.28319040e-03,
          -6.11597497e-04, 4.92659723e-03, -2.71439422e-02,
          -9.52319894e-03, -1.74950226e-03, -7.56949279e-03,
          1.43325899e-03, -2.41337391e-03, 8.42760899e-04,
          4.85981861e-03, 1.29556647e-02, 3.97261279e-03, 7.26752821e-03,
          2.86864880e-02, 6.18758611e-03, -6.60753518e-04,
          -2.10983399e-03, -8.61977227e-03, -1.17099602e-02,
          -6.05509209e-04, -1.70703493e-02, 1.86862983e-02,
          3.47766392e-02, 1.76816490e-02, 1.11219184e-02,
          -1.50680178e-04, -1.92394089e-02, -2.46445127e-02,
          -2.14356296e-02, -2.60428768e-02, 7.30137527e-03,
          1.11097917e-02, -2.24689022e-03, 3.55827226e-03,
          -7.89573509e-03, 4.05294588e-03, 2.34091002e-03,
          1.78825611e-03, -1.36805873e-03, 2.31992099e-02,
          4.39790748e-02, 2.46857032e-02, 1.46693857e-02, 8.66009016e-03,
          -1.77601445e-02, -1.75131075e-02, -3.22090685e-02,
          -4.17798124e-02, 2.42079259e-04, 1.07748937e-02,
          2.13791383e-03, 1.19761406e-02, -3.67805175e-03,
          2.11424157e-02, 1.61002949e-02, -3.69471993e-04,
          -1.11069959e-02, -3.74604128e-02, -2.23746989e-03,
          1.63870270e-03, 1.92334261e-02, 2.73656994e-02, 3.62833925e-02,
          3.10679469e-02, 1.38885211e-02, -9.77839436e-03,
          -4.21242900e-02, -6.89292606e-03, 2.54987925e-03,
          2.66704764e-02, 3.97265702e-02, 1.73099004e-02, 1.16570331e-02,
          -1.29135167e-02, -2.47265454e-02, -4.70525920e-02,
          -1.01557719e-02, -6.77257171e-03, 9.49040893e-03,
          2.31478345e-02, 2.73616537e-02, 3.00061721e-02, 1.64383259e-02,
          -2.15329584e-02, -4.57061827e-02, -1.97498985e-02,
          3.35954153e-03, 3.09938919e-02, 3.28354426e-02, 2.19478589e-02,
          1.58540327e-02, -6.98998896e-03, -2.40084305e-02,
          -4.81842011e-02, -1.03912270e-02, 1.73741067e-03,
          1.60694141e-02, 2.42430307e-02, 1.20805642e-02, 2.45380518e-03,
          -1.65250711e-02, -3.03957169e-03, -2.96306815e-02,
          2.34894715e-02, 2.01104861e-02, 1.82406101e-02, 1.78544763e-02,
          1.99131146e-02, 2.46141944e-02, 8.92779510e-03,
          -1.58088095e-02, -5.31834848e-02, -1.71360467e-02,
          7.73925986e-03, 3.19086537e-02, 2.44768504e-02, 1.18765747e-02,
          9.56564117e-03, -5.54704852e-03, 1.55598512e-02,
          -2.79743969e-02, 2.17453036e-02, 1.49271330e-02,
          1.74716115e-02, 1.85600687e-02, 2.11046357e-03, 8.64804536e-03,
          -1.11832833e-02, 1.55320317e-02, -1.47411786e-02,
          3.15120108e-02, 1.10562881e-02, 9.35649127e-03, 5.90970460e-03,
          -9.88084357e-03, 3.51975672e-03, -1.22025656e-02,
          3.91350314e-03, -2.83692982e-02, 2.56108609e-03,
          -9.04964097e-03, -1.70701761e-02, -1.31336339e-02,
          4.79799788e-03, 1.14116613e-02, 7.44107552e-03, 1.90216582e-02,
          -1.66865792e-02, 2.14690045e-02, 1.51300011e-02,
          1.18742660e-02, 1.63546037e-02, -4.60767234e-03,
          4.98698326e-03, -2.41457578e-03, 5.76652680e-03,
          -2.80398596e-02, -8.72272812e-03, -3.52109456e-03,
          -6.44928543e-03, -4.71614162e-03, -1.40201552e-02,
          1.17503442e-02, 1.14398012e-02, 1.90515388e-02,
          -9.82229784e-03, 1.07439924e-02, -5.50225424e-03,
          -1.91091485e-02, -1.96418222e-02, -2.49845739e-02,
          -2.10851664e-03, -7.36810558e-04, 1.41676115e-02,
          8.05742946e-03, 1.89445429e-02, -1.23214200e-02,
          -1.90846082e-02, -2.40739062e-02, -1.37568191e-02,
          9.30189341e-03, 1.84126291e-02, 2.54581533e-02,
          -8.80475901e-03, -4.45217779e-03, -2.38008681e-03,
          -9.25043505e-03, -1.75638758e-02, -2.76585855e-02,
          -3.08978138e-03, 1.06554711e-03, 2.27548629e-02,
          -1.71475776e-03, 3.54277133e-03, -1.62767190e-02,
          -1.41586540e-02, -2.94984933e-02, -1.70980543e-02,
          -4.09850385e-03, 1.92659243e-03, 5.62255131e-03,
          1.31975356e-02, 2.10877769e-02, 1.09124137e-03,
          -5.60865831e-03, -1.35130472e-02, -6.51275087e-03,
          -2.05126405e-03, -5.09342470e-04, -9.53478366e-03,
          9.17108450e-03, 1.00978771e-02, -9.71500238e-04,
          6.20814099e-04, -9.17830039e-03, -1.51086319e-02,
          -5.54919709e-03, 1.68025494e-03, 1.22288195e-02,
          1.63911041e-02, 2.59517482e-03, -3.10651353e-03,
          -3.62871937e-03, -1.85827669e-02, -1.77329835e-02,
          -8.86811502e-03, -9.65303462e-03, -9.10987332e-03,
          4.69425786e-03, -1.86645018e-03, -2.92529864e-03,
          -4.80607338e-03, -2.05988735e-02, -1.40507030e-03,
          7.18734460e-04, 5.92966750e-03, -1.94722600e-02,
          1.97051419e-03, 4.05622600e-03, 8.96013007e-05, 8.75310600e-03,
          1.20298530e-03, 3.69001809e-03, 7.69857224e-03, 1.25192767e-02,
          1.94825660e-02, 2.37651523e-02, 3.44634652e-02, 1.15357125e-02,
          8.22836719e-03, 4.79851151e-03, -2.27209330e-02,
          -1.59425307e-02, -5.65757928e-03, -8.67988262e-03,
          -1.49582289e-02, -1.56284831e-02, -5.91337960e-03,
          -2.36039492e-03, -2.00936627e-02, -9.93512943e-03,
          -5.91069972e-03, -1.17771886e-03, 1.93338729e-02,
          7.27181183e-03, -6.86372723e-03, -5.59581583e-03,
          -1.02862983e-03, -7.50160497e-03, -3.72595096e-04,
          1.57786068e-03, -2.94814422e-03, 4.52954648e-03,
          2.78699994e-02, 3.93858179e-02, 1.28471069e-02, 1.18166814e-02,
          4.38355934e-03, -1.25998417e-02, -1.23086544e-02,
          -2.17142832e-02, -3.96907963e-02, -8.50360468e-03,
          4.02212748e-03, -6.25517033e-03, 6.70606084e-03,
          7.46077101e-04, -5.36935264e-03, -6.44927705e-03,
          -3.18505475e-03, 9.93280392e-03, 1.20326029e-02,
          1.64027940e-02, 1.14875892e-02, 8.94613564e-03, 7.95740355e-03,
          -9.69395228e-03, -1.48513233e-02, -1.84797440e-02,
          -2.82482076e-02, -2.83129397e-03, -5.09579899e-03,
          -1.00649195e-02, 2.73052417e-03, -1.38154929e-03,
          2.84775607e-02, 1.27244806e-02, -1.68237891e-02,
          -4.21796888e-02, -5.44246249e-02, -7.29241129e-03,
          7.60377338e-03, 1.89285986e-02, 3.31846923e-02, 3.50105762e-02,
          2.81603523e-02, 3.65782320e-03, -3.37041914e-02,
          -6.24649934e-02, -1.83830820e-02, 1.22016687e-02,
          3.43277827e-02, 3.65046188e-02, 3.56667377e-02, 1.12483939e-02,
          -1.55097963e-02, -3.62140089e-02, -5.66480905e-02,
          -1.62830837e-02, 6.40311325e-03, 2.65081283e-02,
          3.41684781e-02, 4.39827964e-02, 2.84286477e-02, 2.49153841e-03,
          -2.35622730e-02, -5.01934104e-02, -6.61131227e-03,
          1.34061966e-02, 3.58469933e-02, 4.43694144e-02, 2.99884416e-02,
          2.48255692e-02, 6.61401777e-03, -3.19244936e-02,
          -5.53222038e-02, -2.49238424e-02, 7.19710859e-03,
          2.81102285e-02, 3.18919085e-02, 1.82712637e-02, 9.11525171e-03,
          -4.05536173e-03, 3.68161616e-03, -2.37494167e-02,
          1.53990099e-02, 1.17623908e-02, 1.64174344e-02, 2.29913015e-02,
          2.68157367e-02, 2.11842600e-02, -4.56288550e-03,
          -3.90380025e-02, -4.77893054e-02, -1.61427706e-02,
          3.14369355e-03, 1.82282533e-02, 3.14183682e-02, 1.30060995e-02,
          -4.88557480e-03, -9.32433084e-03, -3.72962584e-03,
          -1.90908611e-02, 2.02528350e-02, 6.20738417e-03,
          5.87844057e-03, 1.27175804e-02, 1.35024386e-02, 1.02789132e-02,
          5.79366600e-03, 2.00557001e-02, -1.82530470e-02,
          3.03733461e-02, 2.21716519e-02, 2.03802343e-02, 2.06569489e-02,
          -6.61994657e-03, 1.61674828e-03, 1.91559945e-03,
          8.60104989e-03, -3.40276249e-02, -5.53290779e-03,
          -4.88089258e-03, -1.88062782e-03, -2.58781435e-03,
          2.58326042e-03, -3.93437827e-03, -4.45445441e-03,
          1.52241262e-02, -7.65470043e-03, 2.82904580e-02,
          1.25200730e-02, 1.24980025e-02, 3.14308051e-03,
          -1.19915577e-02, -1.93578482e-03, -1.54406554e-03,
          8.88130814e-03, -2.23842319e-02, 3.44786374e-03,
          -1.12981312e-02, -6.89444132e-03, -9.24341660e-03,
          -1.28803859e-02, 5.94745204e-03, 1.35055473e-02,
          2.96820756e-02, -5.72099444e-03, -1.14684245e-02,
          -3.09924199e-03, -8.85451492e-03, -1.31768063e-02,
          -2.28929855e-02, -4.36584000e-03, 6.46534003e-03,
          2.85927877e-02, 4.30240901e-03, -8.83535109e-03,
          -1.61941331e-02, -1.50611131e-02, -2.59050950e-02,
          -9.73736402e-03, 1.57451462e-02, 2.16739830e-02,
          2.75140796e-02, -9.87948943e-03, -6.18117105e-04,
          -8.58690497e-03, -9.37776733e-03, -5.74370427e-03,
          -1.60290021e-02, 4.40366380e-03, 1.05120707e-02,
          1.68331712e-02, -2.95315636e-03, -1.33603876e-02,
          -1.09338965e-02, -1.29290046e-02, -1.10965278e-02,
          -1.65123101e-02, -9.87591874e-03, 7.62398308e-03,
          1.75586101e-02, 1.71964131e-02, -5.60383638e-03,
          -1.46729238e-02, -1.08508188e-02, -1.93577502e-02,
          -2.75849588e-02, -1.65749341e-02, -7.34538399e-03,
          -7.14477093e-04, 8.05149507e-03, -9.65694152e-03,
          -2.09521186e-02, -1.43768433e-02, -2.52956785e-02,
          -1.05876261e-02, -6.40617777e-03, 8.16530734e-03,
          2.33148858e-02, 2.36789230e-02, -3.20631126e-03,
          -1.17115369e-02, -9.14204493e-03, -8.96363053e-03,
          -1.26331113e-02, -9.32008773e-03, -8.47399421e-03,
          1.78299379e-02, 2.01545022e-02, -1.33005930e-02,
          -2.96312124e-02, -1.44699030e-02, -1.35414926e-02,
          -2.36207452e-02, -2.06111278e-02, -5.77074615e-03,
          6.01528387e-04, -2.06732168e-03, -1.56652816e-02,
          -1.93706620e-02, -6.22023456e-03, -2.04043258e-02,
          -1.30916582e-02, -1.15419002e-02, -8.89293011e-03,
          2.54742447e-02, 2.91050458e-03, -3.70789110e-03,
          -2.19026022e-03, 9.94322472e-04, -3.19798430e-03,
          -1.23252878e-02, -1.17229884e-02, -9.27711464e-03,
          1.14950305e-02, -1.66103616e-03, -2.11811252e-03,
          -2.03530975e-02, -9.60869249e-03, -8.44056439e-03,
          -1.11337658e-03, -1.13801043e-02, -1.57789029e-02,
          1.78099647e-02, 1.96267888e-02, 1.22306226e-02,
          -1.66014535e-03, 5.64596558e-04, 6.11234270e-03,
          -4.57340386e-03, -4.90784785e-03, -8.09744524e-04,
          5.55061502e-03, 1.21426648e-02, 7.57421507e-03, 3.28555936e-03,
          6.51708851e-03, 8.10890365e-03, -3.57596623e-03,
          -6.23088237e-03, -1.88817456e-03, -1.91217922e-02,
          2.14408990e-03, -1.00823608e-03, -1.61638316e-02,
          -6.74333517e-03, 8.61424429e-04, 5.06687211e-03,
          -2.06183130e-03, -6.30502636e-03, -9.00542247e-04,
          1.61785316e-02, 1.57123134e-02, 4.28592134e-03, 4.00529616e-03,
          5.56138484e-03, -5.89286070e-03, -4.21347795e-03,
          1.07859157e-03, -3.82047053e-03, -3.21360491e-03,
          -1.03687309e-02, -9.18756332e-03, -4.82431194e-03,
          -2.84781307e-03, 2.82403585e-02, 1.04853529e-02,
          -6.97807828e-03, -1.46775814e-02, -3.32688168e-02,
          -1.15351295e-02, -3.45229032e-03, 1.37636606e-02,
          2.49155220e-02, 2.51437444e-02, 1.32373339e-02,
          -6.47714769e-04, -8.67881998e-03, -2.61786673e-02,
          -3.40300146e-03, 1.41992979e-02, 2.80278195e-02,
          3.70301455e-02, 8.24766327e-03, 4.45145415e-04, 4.38381219e-03,
          1.13045461e-02, -8.90747458e-03, -1.92391465e-03,
          -4.79683001e-03, -4.26781923e-03, 5.42808603e-03,
          8.29210039e-03, -3.39989690e-03, -6.43765088e-03,
          -8.87182076e-03, -1.37978131e-02, 7.25350855e-03,
          9.18881036e-03, 4.22938308e-03, 6.67400192e-03, 1.62358526e-02,
          1.57338008e-02, -4.88191610e-04, -2.19252538e-02,
          -2.04277691e-02, 6.77083561e-04, 1.44269047e-02,
          2.83201262e-02, 2.61212699e-02, 6.35395665e-03,
          -2.88077956e-03, -4.18963144e-03, -9.00907535e-03,
          -2.25898735e-02, 2.23708320e-02, 1.44343171e-02,
          1.30918864e-02, 5.85632678e-03, 2.64193397e-03, 5.88281499e-03,
          -1.16555560e-02, -2.16343049e-02, -1.55893043e-02,
          -2.16064579e-03, 1.03437491e-02, 7.00968970e-03,
          -3.17710615e-03, -1.09218445e-03, -1.43613710e-04,
          -6.05283165e-03, 7.34302041e-04, -1.46587435e-02,
          2.55013481e-02, 1.59391370e-02, 1.12539278e-02,
          -9.39269434e-04, 2.49654381e-03, -7.92789180e-03,
          1.84062461e-03, 1.58397723e-02, -8.74919817e-03,
          2.63561793e-02, 9.01074987e-03, 9.49441269e-03, 3.14756413e-03,
          -1.80876290e-03, 1.35908555e-03, 1.03506194e-02,
          9.97417513e-03, -2.22487822e-02, 1.04035186e-02,
          -1.28439283e-02, -1.29799768e-02, -5.28359693e-03,
          3.11106443e-03, -8.51045304e-04, -7.51580868e-04,
          1.91383120e-02, -1.44439330e-02, 2.60672253e-02,
          1.69120096e-02, 1.09462850e-02, 9.18537285e-03,
          -1.01637165e-03, 8.69378261e-03, 9.55388043e-03,
          5.05192671e-03, -2.09702216e-02, -1.28011114e-03,
          -1.88789684e-02, -1.00049088e-02, -2.37282063e-03,
          -4.37092735e-03, 1.12339184e-02, 1.68987866e-02,
          2.17755660e-02, -1.91166848e-02, 1.22625874e-02,
          -9.19681042e-03, -1.00853993e-02, -2.59870826e-03,
          -1.28961811e-02, 1.67104567e-03, 9.72917711e-04,
          7.24535389e-03, -7.95084983e-03, -3.85692320e-03,
          -1.51639143e-02, -1.18576447e-02, -8.00538715e-03,
          -5.56875253e-03, 7.66679971e-03, 8.15148652e-03,
          2.32585836e-02, -9.58605297e-03, 1.03722578e-02,
          -1.88975409e-02, -1.48964375e-02, -1.09005263e-02,
          -1.90191865e-02, -9.11370851e-03, -4.58827475e-04,
          1.93576626e-02, -7.66410725e-03, -5.13859466e-03,
          -2.49699783e-02, -1.52808418e-02, -1.39430668e-02,
          -1.45356432e-02, -1.10041471e-02, 2.52833735e-04,
          1.62975099e-02, 1.78509597e-02, -6.86346181e-03,
          -1.82228442e-02, -1.35570513e-02, -1.16200717e-02,
          -1.86000671e-02, -1.30683668e-02, -6.30620588e-03,
          6.18049689e-03, 1.71868093e-02, -1.99692827e-02,
          -2.93714497e-02, -1.72911678e-02, -1.93586145e-02,
          -1.48230232e-02, -1.12841725e-02, 2.06336682e-03,
          2.06707716e-02, 9.79582686e-03, 1.71072793e-03,
          -1.09175229e-02, -3.21251969e-03, -7.86103215e-03,
          -1.07838046e-02, -4.79279831e-03, 7.29658967e-03,
          8.41199979e-03, 1.77172218e-02, 1.77076203e-03,
          -8.75380822e-03, -8.59775580e-03, -1.40391756e-02,
          -1.30808363e-02, -8.67109653e-03, -8.64897948e-03,
          3.37353558e-04, 1.51482262e-02, -1.51076110e-03,
          -1.37534142e-02, -8.91430862e-03, -1.12140179e-02,
          -3.15092038e-03, -1.34162875e-02, -2.15931665e-02,
          -1.95698068e-03, 1.88801959e-02, 2.63172612e-02,
          -1.10086240e-02, -7.34919868e-03, -2.46328162e-03,
          -3.65236192e-03, 8.26475443e-04, -2.66189058e-03,
          -3.69016459e-04, 2.31062248e-02, 7.37573439e-03,
          4.68108803e-03, 8.51829478e-04, -5.93958749e-03,
          -1.16835795e-02, -1.85887013e-02, -2.62881517e-02,
          -1.40524432e-02, 8.12732428e-03, 1.82454474e-02,
          1.43838394e-03, 1.14362338e-03, -5.07819559e-03,
          2.80120340e-03, -8.32038373e-03, -1.01608103e-02,
          5.78035368e-03, 2.73485426e-02, 2.71757338e-02, 5.70595451e-03,
          2.44719372e-03, 3.32620251e-03, -1.10548898e-03,
          -2.82894610e-03, -1.77348661e-03, -3.79475672e-03,
          5.80099272e-03, 4.67109028e-03, 1.59355975e-03, 1.32054172e-03,
          -3.78706702e-03, -2.38446356e-03, -1.41007211e-02,
          -2.35786699e-02, -7.33110681e-03, 1.73138659e-02,
          2.17618532e-02, 7.74785224e-03, 2.07426702e-03,
          -2.27722157e-05, -7.93737080e-03, -9.93119460e-03,
          -1.46866757e-02, -6.22136844e-03, 1.02771530e-02,
          4.00494505e-03, 2.42874026e-03, 5.51079027e-03,
          -4.66363784e-03, 9.92705021e-03, 4.27542953e-03,
          9.80008952e-03, 1.30350729e-02, -1.41202174e-02,
          8.51114863e-04, 1.20027857e-02, 9.55990329e-03, 1.30240591e-02,
          1.04600918e-02, 5.65931899e-03, 3.84316989e-03,
          -9.13190283e-03, -1.50501132e-02, 9.17488243e-03,
          1.26715628e-02, 2.59915658e-04, 2.82644806e-03, 2.18714215e-02,
          5.51325828e-03, -9.28444136e-03, -2.17312723e-02,
          -4.21796143e-02, -9.35779884e-03, 1.20574422e-02,
          2.23937482e-02, 2.64321938e-02, 1.94619801e-02, 7.39004929e-03,
          -4.16723732e-03, -3.17585170e-02, -3.89015265e-02,
          -2.15184060e-04, 7.68382614e-03, 1.47774247e-02,
          1.69162899e-02, 8.70462228e-03, 1.17101688e-02, 8.85574799e-03,
          -6.79150922e-03, -8.65812507e-03, 6.81958348e-03,
          6.62188977e-03, -2.69141910e-03, -3.69872642e-03,
          4.02985886e-03, 1.21101188e-02, 1.81000624e-02, 2.23444831e-02,
          -1.45363261e-03, 3.31055373e-02, 2.37772167e-02,
          1.26436222e-02, 1.16158137e-03, 3.91899655e-03, 5.47315460e-03,
          -1.82113214e-03, -2.17521284e-02, -1.59394573e-02,
          -8.27577338e-03, 7.39512686e-03, 1.59898843e-03,
          -2.33650208e-03, -9.62980324e-04, 1.15007516e-02,
          8.77512898e-03, 7.15808570e-03, -1.86425392e-02,
          1.63019486e-02, 1.71001125e-02, 1.39219528e-02, 7.35971029e-04,
          2.50200182e-03, 6.46674680e-03, 1.06862094e-02, 1.94263328e-02,
          -2.04903670e-02, 2.51203645e-02, 2.07961258e-02,
          1.75886508e-02, 8.80484935e-03, -1.11508165e-02,
          7.62719195e-03, 1.62046272e-02, 5.35184809e-04,
          -2.84060854e-02, -1.80470722e-03, -8.08431301e-03,
          -6.12504594e-03, -1.79833558e-03, -1.32616959e-04,
          7.77461985e-03, 7.01628532e-03, 6.26876624e-03,
          -2.49164309e-02, 8.46407004e-03, 1.55126890e-02,
          1.86958071e-02, 6.24235580e-03, -1.90306883e-02,
          -3.74525972e-03, 4.65621613e-03, 3.49907251e-03,
          -2.95422710e-02, -2.82827835e-03, -1.15053039e-02,
          -1.22373458e-03, -5.44552319e-03, -9.68291238e-03,
          1.05323130e-02, 1.73575543e-02, 2.28417758e-02,
          -4.90824226e-03, 2.73256120e-03, -2.07104981e-02,
          -1.32224383e-02, -1.07871154e-02, -1.23063549e-02,
          3.58721853e-04, 6.57376274e-03, 3.45434994e-02, 6.08381396e-03,
          -1.06648318e-02, -2.06948407e-02, -1.01944841e-02,
          -1.62301715e-02, -2.52876617e-02, -2.25028512e-03,
          2.07238737e-02, 2.98245586e-02, -2.36376142e-03,
          1.59980601e-03, -1.88334715e-02, -1.54952202e-02,
          -1.73325930e-02, -2.64056996e-02, -8.26292951e-03,
          4.38702945e-03, 2.74924748e-02, 2.58058612e-03,
          -8.03612266e-03, -2.92108301e-02, -1.75761040e-02,
          -2.47843526e-02, -1.45155368e-02, -7.48746982e-03,
          -1.90084591e-03, 1.46810515e-02, 9.42151062e-03,
          5.03666699e-03, -1.55106448e-02, -4.12530173e-03,
          -1.11837462e-02, -1.14038344e-02, -4.48910752e-03,
          -5.16873691e-03, 5.99932950e-03, 1.36398310e-02,
          1.96849518e-02, -3.20286746e-03, -1.05017452e-02,
          -1.58974156e-02, -2.41172202e-02, -1.25626791e-02,
          -2.59720022e-03, 1.94825716e-02, 1.89836938e-02,
          -4.21041576e-03, -2.39617154e-02, -1.41166216e-02,
          -2.06621867e-02, -3.20739821e-02, -1.70699004e-02,
          -9.98560898e-03, 6.79675536e-03, 1.54185975e-02,
          1.94290392e-02, -2.11639106e-02, -2.26386022e-02,
          -2.93159839e-02, -4.65661893e-03, -2.11526803e-03,
          -6.79100573e-04, 1.82617456e-02, 3.11254803e-02,
          1.19776595e-02, 8.25662352e-03, 1.47512602e-03,
          -9.26152710e-03, -2.78551155e-03, -9.12224315e-03,
          -1.37542356e-02, -1.29189333e-02, 5.46272052e-03,
          1.28791118e-02, 2.10382650e-03, 3.44787678e-03,
          -3.00223823e-03, -1.29740750e-02, -1.40189398e-02,
          -6.55865157e-03, 1.25486497e-02, 2.22462807e-02,
          1.12864859e-02, -6.65625371e-03, -1.25027830e-02,
          -1.72140971e-02, -1.73031762e-02, -1.76680572e-02,
          -1.23915980e-02, -4.66077775e-03, 6.19569700e-03,
          -1.54053075e-02, -1.07054962e-02, -7.10760197e-03,
          -1.46758929e-02, 4.80703590e-03, 3.03850835e-03,
          -4.68935771e-03, -1.04854181e-02, 2.02112738e-02,
          1.91887021e-02, 4.52567264e-03, 3.07350140e-03, 3.97780258e-03,
          2.16347352e-03, -5.41098183e-03, -2.48917211e-02,
          -9.67405178e-03, 1.76494587e-02, 6.19039359e-03,
          2.11709016e-03, 6.59167487e-03, 2.45916052e-03,
          -6.87682070e-03, -2.12443201e-03, -9.18188412e-03,
          -1.06553081e-02, 1.54521456e-02, 4.30423766e-03,
          -1.32867945e-02, -1.02211861e-02, -6.42242376e-03,
          -6.82437979e-03, -1.33445505e-02, -1.88585464e-02,
          -1.20859873e-02, 6.68999506e-03, 5.93334809e-03,
          -2.79145455e-03, 7.25478912e-03, -5.29383449e-03,
          2.28420440e-02, 3.45229823e-03, -1.88679155e-02,
          -4.05398570e-02, -3.31400596e-02, -5.30099962e-03,
          1.21195596e-02, 2.33443622e-02, 3.16157229e-02, 1.95416678e-02,
          7.78419338e-03, -7.22868741e-03, -4.81213033e-02,
          -3.93706597e-02, -1.04526030e-02, 2.14370210e-02,
          2.27102470e-02, 2.49621198e-02, 9.29304678e-03,
          -2.59909895e-03, -5.90669457e-03, -1.46389753e-02,
          -1.78391300e-02, 5.52218081e-03, 1.53046865e-02,
          2.27388740e-02, 1.86623801e-02, 1.56023074e-02, 2.57026264e-03,
          -1.08566228e-02, -3.79867293e-02, -2.38229949e-02,
          1.53419077e-02, 4.29411270e-02, 2.53387839e-02, 1.52264601e-02,
          9.64167807e-03, 8.41694046e-03, -7.47584831e-03,
          -2.50582565e-02, -1.72548294e-02, 2.08362448e-03,
          2.08367556e-02, 1.57013368e-02, 1.10030891e-02,
          -6.28124340e-04, -5.22283604e-03, -7.75055541e-03,
          -4.00871597e-03, -8.08298122e-03, 1.51501801e-02,
          1.84384752e-02, 2.67720409e-02, 1.26811285e-02, 9.09376331e-03,
          1.83773634e-04, -1.48666175e-02, -1.82994008e-02,
          -1.45009989e-02, 2.16158535e-02, 3.28082629e-02,
          2.13069599e-02, 4.63066576e-03, -1.14939427e-02,
          -1.75899342e-02, -2.23566499e-02, 9.20171104e-03,
          -1.25758415e-02, 2.19152998e-02, 2.34982036e-02,
          2.12548058e-02, 5.02154813e-04, 5.03775605e-04,
          -3.17381392e-03, -4.70833806e-03, 4.12874157e-03,
          -1.01388926e-02, 1.37072988e-02, 9.48680192e-03,
          2.00462379e-02, 1.37519147e-02, -1.05828475e-02,
          -5.04199648e-03, -5.79664076e-04, 3.04748566e-04,
          -1.18844910e-02, 2.21535433e-02, 3.97159811e-03,
          5.03176590e-03, -6.33938762e-04, -1.75817143e-02,
          -2.32932623e-02, -1.43248579e-02, 2.59658042e-03,
          -5.59424702e-03, 1.24642747e-02, 1.04242209e-02,
          1.00036990e-02, -2.80181854e-03, -1.81927755e-02,
          -1.35183642e-02, -7.35195819e-03, -1.21498015e-03,
          -6.67991070e-03, 2.13194788e-02, 1.13419192e-02,
          5.85909002e-03, -5.81770483e-03, -1.25652160e-02,
          -3.54714552e-03, 1.27155464e-02, 1.62035562e-02,
          -1.52062497e-03, 1.33627700e-02, -4.77426127e-03,
          -7.32140569e-03, -4.47914843e-03, -1.61440596e-02,
          -2.40975525e-03, 1.47097325e-02, 1.80331953e-02,
          7.70886056e-03, 4.76396270e-03, -2.47090980e-02,
          -1.72847584e-02, -1.63172297e-02, -1.18929995e-02,
          -7.57327676e-03, 2.24788766e-03, -9.06069705e-04,
          -5.43408003e-03, 8.99052434e-03, -2.86682439e-03,
          2.47479111e-05, -9.60804615e-03, -1.30906524e-02,
          -2.87015946e-03, 3.63789662e-03, 3.66321648e-03,
          2.30538542e-03, -7.18562957e-03, -2.21888032e-02,
          -1.85279027e-02, -1.81891937e-02, -1.71210207e-02,
          -9.69731249e-03, 3.15540540e-03, 1.90518275e-02,
          2.59423498e-02, 9.25870612e-04, -1.84819456e-02,
          -1.29863629e-02, -1.49768675e-02, -2.36782879e-02,
          -1.80186667e-02, -1.17493030e-02, 9.61507112e-03,
          2.45158523e-02, 1.78893059e-02, -1.89428423e-02,
          -1.55763375e-02, -2.09003016e-02, -6.86017424e-03,
          -3.65081010e-03, -1.03589802e-04, 1.45498225e-02,
          1.75776891e-02, -4.66883229e-03, -2.58820523e-02,
          -1.22410879e-02, -1.09379869e-02, -2.43638270e-02,
          -1.44117763e-02, -6.54161396e-03, 6.18182356e-03,
          1.93366539e-02, 9.28732567e-03, -1.85623765e-02,
          -2.42547784e-02, -2.15106439e-02, -9.28490609e-03,
          -9.94009152e-03, -3.88356089e-03, 8.00144859e-03,
          3.30448300e-02, 2.40127929e-02, -6.26602862e-03,
          -6.10087765e-03, -7.69936945e-03, -1.20379943e-02,
          -1.05295368e-02, 7.47060913e-05, 1.88884158e-02,
          1.99681856e-02, -9.22693405e-03, -1.30053060e-02,
          -9.22681764e-03, -1.07421121e-02, -9.26380698e-03,
          -9.98029206e-03, -3.66856810e-03, 9.63598862e-03,
          3.00302953e-02, 1.93193872e-02, 4.31265309e-03,
          -1.10151302e-02, -5.86568890e-03, -1.08400928e-02,
          -1.16686122e-02, -1.27145241e-03, -1.76507677e-03,
          1.77470390e-02, -9.34738200e-03, -1.81515105e-02,
          -2.33497117e-02, -1.00429161e-02, -7.26454984e-03,
          -2.45636492e-03, 9.48170293e-03, 1.11085307e-02,
          1.45250177e-02, -8.75706505e-03, -1.96259469e-02,
          -1.31431520e-02, -8.45215656e-03, -7.17608258e-03,
          -1.04351155e-02, 4.26694192e-03, -1.16522447e-03,
          1.80397220e-02, 8.45520943e-03, -1.58620812e-03,
          -1.30475836e-03, -5.48797473e-03, 7.37813010e-04,
          8.33392900e-04, 1.54024912e-02, 1.26340298e-03, 6.55123265e-03,
          4.45625832e-04, -1.51990941e-02, -1.80478226e-02,
          -2.59664725e-03, 1.87086756e-03, 3.97443492e-03,
          1.38601931e-02, 1.42993184e-03, 1.99566502e-02, 1.11979665e-02,
          9.13958810e-03, 6.06028072e-04, 4.01005661e-03, 5.41618466e-03,
          3.34502989e-03, 2.60755944e-04, -1.06292553e-02,
          -2.72790948e-03, 1.50440242e-02, 9.75071453e-03,
          1.26716243e-02, 8.10125470e-03, 5.71738090e-03,
          -6.26919884e-03, -6.21259958e-03, -2.59843916e-02,
          -8.57165898e-04, 2.92806830e-02, 3.66746448e-02,
          2.07274836e-02, 6.91007543e-03, -6.25973684e-04,
          2.51971348e-03, -4.48306417e-03, -2.38030758e-02,
          -1.90221076e-03, 1.68301091e-02, 3.32674664e-03,
          -5.28673525e-04, 6.60654216e-04, 1.76497945e-03,
          -1.47455675e-03, 9.83915105e-03, -8.59522447e-03,
          4.40489268e-03, 2.28132661e-02, 1.83721054e-02, 1.18629718e-02,
          1.21763442e-03, -1.13331610e-02, -1.30788125e-02,
          -9.95624997e-03, -1.19560193e-02, -2.50798743e-03,
          3.55565250e-02, 3.03146318e-02, 1.00935381e-02,
          -1.11572128e-02, -1.44199012e-02, -1.68259516e-02,
          -1.53735243e-02, -3.84142785e-03, -4.22248291e-03,
          1.28551861e-02, 1.63440984e-02, 9.80114285e-03,
          -3.03395628e-03, -9.02462844e-03, -6.31327974e-03,
          1.23247858e-02, 8.71472806e-03, -1.79990812e-03,
          3.16259675e-02, 2.18040533e-02, 3.98684340e-03,
          -4.16157395e-03, -9.36437305e-03, -8.26856587e-03,
          8.11413862e-03, -1.73975516e-03, -6.08217251e-03,
          1.11688599e-02, 2.18150169e-02, 4.51821089e-03,
          -7.81610375e-04, -1.16529725e-02, -1.94292869e-02,
          -1.03541464e-02, 4.44002869e-03, 6.18412113e-03,
          1.27535267e-02, 1.58287250e-02, 1.09288385e-02, 2.56903539e-03,
          -1.72119886e-02, -1.67301446e-02, -5.70652774e-03,
          9.90993902e-03, 3.14312615e-03, 1.04545122e-02, 1.36277350e-02,
          -4.25520074e-03, -1.03801284e-02, -9.39076766e-03,
          -1.46483546e-02, -1.24155749e-02, -1.04015728e-03,
          -2.57081864e-03, 7.01760780e-03, 3.05747390e-02,
          9.20946151e-03, 2.23874557e-03, -2.31758002e-02,
          -2.34708227e-02, -1.31352087e-02, 8.53246357e-03,
          -9.30796191e-03, 1.08082974e-02, 1.90127231e-02,
          -1.65508274e-04, -1.68009475e-02, -8.00439529e-03,
          -3.88054643e-03, 1.01762265e-02, 8.88422411e-03,
          3.93936690e-03, 6.54859934e-03, 2.89427838e-03,
          -6.09407434e-03, -1.46175064e-02, -1.89606624e-03,
          3.22233303e-03, 5.43962466e-03, 8.95441789e-03, 6.03761943e-03,
          -4.40328475e-03, -2.24096589e-02, -1.47214113e-02,
          -9.57830064e-03, -9.88749601e-03, -6.10137358e-03,
          5.38315531e-03, 1.06788613e-02, -2.81643984e-03,
          7.55378976e-03, 8.13958328e-03, -2.07622512e-03,
          -1.34311868e-02, -1.02275535e-02, -5.40755829e-03,
          5.22450870e-03, 3.67664010e-03, -4.08592680e-03,
          -9.71204694e-03, -1.84351467e-02, -2.10782252e-02,
          -1.33037549e-02, 2.12967832e-04, 6.05562516e-03,
          1.00870719e-02, 1.99690927e-02, 1.33784441e-02,
          -2.93833972e-03, -1.98132787e-02, -5.97507227e-03,
          -1.30188779e-03, -1.26942368e-02, 2.73766718e-03,
          4.15736809e-03, 1.48934815e-02, 1.88502036e-02, 1.34154847e-02,
          -6.47614896e-03, -1.39955683e-02, -1.17420824e-02,
          -1.43469526e-02, -1.03643946e-02, -4.25768131e-03,
          1.64210815e-02, 7.72442855e-03, -7.30486307e-03,
          -2.60140784e-02, -1.29623655e-02, -9.79182031e-03,
          -2.40777712e-02, -1.17085334e-02, -2.68504093e-03,
          1.43617950e-02, 1.41550656e-02, -1.02972263e-04,
          -2.57528033e-02, -1.65044405e-02, -1.46341519e-02,
          -4.57550585e-03, 3.04669631e-03, 5.61049534e-03,
          1.26708094e-02, 2.69774273e-02, 1.50067154e-02, 5.45039447e-03,
          -4.59466456e-03, 4.64390265e-03, -7.93079566e-03,
          -3.12071061e-03, -5.99108310e-03, -7.14078639e-03,
          1.71461347e-02, -1.86673575e-03, -1.24087082e-02,
          -1.44612463e-02, -3.86708393e-03, -1.29103772e-02,
          -2.29582679e-03, 9.11072269e-03, 1.04172770e-02,
          1.95739530e-02, 5.13772340e-03, -1.28982672e-02,
          -1.48569439e-02, -8.82782787e-03, -2.68511437e-02,
          -1.54262306e-02, -4.56707459e-03, -1.44395896e-03,
          1.07175671e-02, -2.14989912e-02, -2.34748740e-02,
          -2.08572075e-02, -1.80006288e-02, 6.58412682e-05,
          -1.86921319e-03, 2.50998489e-03, -7.07812002e-03,
          4.84433398e-03, 1.56001374e-03, -6.47143926e-03,
          -7.99916219e-03, -2.21572816e-03, 4.29231487e-03,
          8.41079222e-04, 2.21728720e-03, -5.41319558e-03,
          1.91596206e-02, 9.41611826e-03, 9.11884289e-03, 4.50481195e-03,
          1.65417488e-03, -1.18053434e-02, -3.21874674e-03,
          -2.13858415e-03, 3.56882275e-03, 1.14224646e-02,
          -1.62150189e-02, -1.58453509e-02, -1.42387114e-02,
          -1.48059400e-02, -4.40100115e-03, -8.10581492e-04,
          1.42508547e-03, 9.35332756e-03, 2.48701498e-02, 4.91660740e-03,
          -3.13941785e-03, -1.82396988e-03, -1.85763778e-03,
          8.58548284e-03, 7.56016094e-03, 3.52077722e-03,
          -1.51449284e-02, 6.64929952e-03, 1.69326179e-02,
          5.79752168e-03, 2.40529515e-03, 4.71557491e-03, 1.14482446e-02,
          1.52952168e-02, 2.00752057e-02, 1.25327595e-02, 5.79215400e-03,
          1.58143342e-02, 8.99985991e-03, 1.18840486e-03, 6.38825179e-04,
          -3.25301592e-03, 7.83915352e-03, 4.63907188e-03,
          -1.69614926e-02, 3.72845889e-03, 9.75737814e-03,
          8.95363628e-04, -7.25922873e-03, -1.19311763e-02,
          5.57531603e-03, 2.43217275e-02, 1.90725345e-02, 5.38263330e-03,
          -8.80572107e-03, -1.25761526e-02, -1.02052400e-02,
          -2.87516043e-03, -6.37407741e-03, -6.02496148e-05,
          3.90841160e-03, 1.42443683e-02, 1.44053902e-02,
          -1.64794538e-03, 1.83657482e-02, 1.33868670e-02,
          6.30192598e-03, -6.87132979e-06, 2.14805338e-03,
          -3.48524726e-03, 4.66230325e-03, -1.53546839e-03,
          -1.05198743e-02, 9.18113999e-03, 1.39067713e-02,
          9.34804231e-03, 8.52211099e-03, 7.83063413e-04, 1.45327179e-02,
          1.19462470e-02, 6.97148091e-04, -1.34941740e-02,
          -6.25275169e-03, -1.56123098e-03, 5.97067922e-03,
          -5.33167273e-04, -5.20086056e-03, -5.53416181e-03,
          -5.76942135e-03, -1.31373871e-02, -2.11932845e-02,
          1.46924043e-02, 1.61094125e-02, 1.03217894e-02, 5.98870029e-05,
          -7.97356886e-04, -1.37859322e-02, -1.57312453e-02,
          -2.57313065e-03, 1.53756409e-03, 7.54505862e-03,
          1.14512192e-02, -1.18556037e-03, 2.23975745e-03,
          -1.68278217e-02, -1.68116577e-02, -1.73972696e-02,
          5.29577490e-03, -2.32818158e-04, 2.78662890e-03,
          4.59800428e-03, -6.85845315e-03, -9.07644723e-03,
          -1.06769986e-03, -1.09785125e-02, -1.47645297e-02,
          -5.70761599e-03, -4.24839789e-03, 1.33718587e-02,
          1.07558491e-02, 4.56885761e-03, 3.16188694e-03,
          -7.17859389e-03, -1.45112267e-02, -1.68355890e-02,
          1.25797307e-02, 8.04589654e-05, 2.05273880e-03,
          -2.69736163e-03, -8.96986760e-03, -3.71795706e-03,
          -8.13485309e-03, -9.21796262e-03, -1.30583905e-03,
          1.04437349e-02, 3.89193627e-03, 1.07591581e-02, 8.34835321e-03,
          -5.99912275e-03, -5.41114528e-03, -8.60442221e-03,
          -7.86542892e-03, -1.32882111e-02, -8.63619056e-03,
          -1.71215627e-02, -3.88763798e-03, -8.55221506e-03,
          -1.44173186e-02, -6.62393216e-03, 3.36444541e-03,
          1.80677656e-04, 7.42137840e-04, 1.68800186e-02, 1.22109624e-02,
          2.17198161e-03, 6.51964976e-04, 1.16041640e-03, 5.59778826e-04,
          -1.53943691e-02, -8.91887210e-03, -2.04294808e-02,
          -1.85166439e-03, -1.62122846e-02, 1.35436347e-02,
          3.66096338e-03, -7.06050498e-03, -1.38214612e-02,
          -1.00441137e-02, -4.00468148e-03, 5.50977746e-03,
          8.78542569e-03, -4.52162385e-05, 2.47510406e-03,
          -6.47758599e-03, -5.33309532e-03, -3.10337939e-03,
          -1.46035943e-02, -7.56554818e-03, -4.85011190e-03,
          6.43592357e-05, 9.22385044e-03, 8.27717362e-04,
          -8.88795685e-03, -6.51873834e-03, -6.39032153e-03,
          -9.27428901e-03, 9.05766443e-04, 4.60116658e-03,
          7.63032632e-03, -1.70707721e-02, 9.89843812e-03,
          5.69652999e-03, 4.70299553e-03, -4.78224130e-03,
          -7.14583043e-03, -1.03221578e-03, 1.85303751e-03,
          1.41402916e-03, -4.64290334e-03, -9.38844867e-03,
          -3.73524148e-03, -2.15923507e-03, -4.51154355e-03,
          -1.63099617e-02, -6.43911399e-03, 3.60456645e-03,
          -2.23744474e-03, 7.09053222e-03, -4.07926273e-03,
          -1.06153088e-02, -1.46094235e-02, -1.32196443e-02,
          -2.16110609e-02, -1.14355301e-02, -7.73400115e-03,
          2.58543948e-03, 1.49565442e-02, -1.06642293e-02,
          -1.35955364e-02, -1.76379178e-02, -2.11842339e-02,
          -7.71508133e-03, 2.49303435e-03, 1.11701991e-02,
          -7.59953214e-03, 9.47622102e-05, -4.90192743e-03,
          -1.24098426e-02, -6.04830170e-03, -4.76898160e-03,
          -2.01155548e-03, -2.83955596e-03, -1.27422286e-03,
          7.01942341e-03, 1.88306272e-02, 1.95266772e-02, 9.47139598e-03,
          -3.16726416e-03, -7.09462073e-03, -1.34714358e-02,
          -9.37034003e-03, -1.12603121e-02, 2.63792532e-03,
          1.61311012e-02, -1.28202708e-02, -7.81502854e-03,
          -1.44340955e-02, -1.46410624e-02, -1.59627367e-02,
          -2.47918349e-03, 2.99401814e-03, 3.25365312e-04,
          1.79256201e-02, -3.85845383e-03, -4.78089042e-03,
          -1.14804842e-02, -1.27700940e-02, -7.22495280e-03,
          -5.41070011e-04, -1.40676752e-03, 5.36257774e-03,
          2.53772363e-02, 1.79791413e-02, 1.80789586e-02,
          -2.00428208e-03, -8.45411886e-03, -1.24735376e-02,
          3.52113205e-03, 1.20212510e-02, 8.35923105e-03, 1.79920178e-02,
          4.88388864e-03, 9.82026756e-03, -5.84405102e-03,
          -1.03932461e-02, 2.37303786e-03, 6.98588975e-03,
          6.10286696e-03, -1.52696744e-02, -7.60415243e-03,
          1.43530527e-02, 1.13217952e-02, 2.11083054e-04,
          -6.95539871e-03, 4.53063427e-03, 2.55012289e-02,
          3.25030796e-02, 1.02947801e-02, -1.98411364e-02,
          -1.71569660e-02, -1.67533359e-03, -1.04655308e-04,
          -1.12737967e-02, -6.06913678e-03, -5.53169462e-04,
          1.74143247e-03, -9.49461944e-03, -3.90624930e-03,
          2.05351301e-02, 1.92966443e-02, 2.15584994e-03,
          -1.01803103e-02, -9.05694161e-03, 4.91726911e-03,
          1.57394819e-02, 5.93498023e-03, -9.49697569e-03,
          -1.41540100e-03, 8.24351143e-03, -1.49729848e-03,
          -1.30087854e-02, 4.04950837e-03, 1.89082921e-02,
          1.65810939e-02, 3.29996925e-03, -1.09589137e-02,
          -8.27475265e-03, 7.21894903e-03, 1.38831753e-02,
          -6.44358457e-04, -2.73314700e-03, 2.44916650e-03,
          5.96905919e-03, -7.16592977e-03, -8.14154837e-03,
          1.64862070e-02, 1.74635109e-02, 1.45048564e-02, 1.67278654e-03,
          -1.08004883e-02, 1.49433746e-03, 2.54007685e-03,
          2.91638519e-03, -3.90505092e-03, -1.27043640e-02,
          4.30894597e-03, 7.72623671e-03, -1.75422430e-03,
          -6.28375635e-03, -1.97364832e-03, 5.16709592e-03,
          1.69340579e-03, -1.97411538e-03, 1.20023116e-02,
          9.14133154e-03, -3.69142368e-03, -3.49511835e-03,
          -3.10746138e-03, 1.34112802e-03, -9.83993337e-03,
          -1.47173330e-02, -1.47624156e-02, 9.88169387e-03,
          8.77157226e-03, 1.08726574e-02, 7.00659305e-03,
          -2.90350011e-03, -6.14830432e-03, -6.49764528e-03,
          -3.49835330e-03, -7.59367365e-03, 4.60898597e-03,
          -2.93884776e-03, 8.62025749e-03, 7.03122001e-03,
          -5.72377350e-03, -3.20017745e-04, 3.77117394e-04,
          -7.08666956e-03, -2.42767669e-03, 3.35379597e-03,
          -8.50308934e-05, 1.36752601e-03, 1.40553387e-03,
          -9.65575315e-03, -2.23266488e-06, 1.01654539e-02,
          2.79261731e-03, -1.40981749e-02, 2.15505320e-03,
          1.63625635e-03, 1.12873805e-03, -7.04725040e-04,
          1.43493374e-03, 6.51273923e-03, 3.59797222e-03, 1.62165833e-03,
          6.35873200e-03, -2.46166514e-04, 3.96968704e-03,
          1.12808421e-02, 5.16017340e-03, -1.00697754e-02,
          -7.02689635e-03, -7.65780406e-03, -2.72219139e-03,
          -1.32937860e-02, 1.83964020e-03, 4.49664844e-03,
          1.51648757e-03, -8.84968229e-03, -9.46795288e-03,
          -2.90967477e-03, 1.59862936e-02, 3.25464807e-03,
          -6.99331891e-03, -1.52306436e-02, -3.47948377e-03,
          -6.53752009e-04, -2.80058268e-03, -9.53823235e-03,
          2.76545575e-03, 3.06749251e-03, 8.00525490e-03,
          -7.45451357e-03, -1.31137995e-02, -8.90744291e-03,
          -3.41888191e-03, -1.44902915e-02, -8.81582871e-03,
          -1.54209952e-03, -9.46478278e-04, 7.06503913e-03,
          -1.12929968e-02, 3.33810761e-03, 5.60881896e-03,
          9.29611921e-03, -2.22944724e-03, -1.39734661e-02,
          -2.73290789e-03, 4.91128117e-03, 1.52055771e-04,
          -2.28831568e-03, -5.97148156e-03, -1.71610061e-03,
          9.73567439e-05, -7.05254870e-03, -2.44461116e-03,
          2.22863560e-03, 9.06644203e-03, 8.80423840e-03,
          -1.21785169e-02, -1.20063061e-02, 3.31825810e-03,
          7.45736063e-03, -2.65761325e-03, -1.27251744e-02,
          -7.60725583e-04, 1.34767909e-02, 9.50719044e-03,
          5.59950341e-03, -3.79488710e-03, -1.74990145e-03,
          -4.56576841e-03, -3.62216635e-03, -8.49151611e-03,
          -1.31943641e-04, 4.12172545e-03, -5.71111823e-03,
          -1.70647411e-03, -3.17945285e-03, -1.42730195e-02,
          -5.74302161e-03, -1.28375879e-03, -1.11565962e-02,
          -4.31132875e-03, -5.04698946e-05, -8.35370086e-03,
          2.63250107e-03, 2.64536813e-02, 1.85993779e-03,
          -8.55462917e-04, -3.89282801e-03, -1.13275787e-02,
          -1.58984016e-03, 8.15943722e-03, 4.29511024e-03,
          9.14403517e-03, 4.08176193e-03, -1.05574727e-02,
          -8.79472028e-03, -6.09947136e-03, 1.60484901e-03,
          5.19302627e-03, 7.09726615e-03, -5.95268095e-03,
          1.87608190e-02, 2.05788705e-02, 3.79204430e-04,
          -3.71232192e-04, 6.29196467e-04, -1.75218172e-02,
          -7.71929603e-03, 3.55128595e-03, 2.70460639e-03,
          1.49343228e-02, 1.74924079e-02, 1.30700404e-02,
          -5.74655086e-03, -1.28744757e-02, -1.97557043e-02,
          -8.92048609e-03, 6.41070167e-03, 1.27082746e-02,
          7.05607422e-03, -5.09276707e-03, 2.86865118e-03,
          -6.52089389e-03, -1.87696014e-02, -6.65578991e-03,
          -1.31235202e-03, 4.73140646e-03, 9.24226083e-03,
          1.75916106e-02, 1.62033625e-02, 1.46154324e-02, 3.18129710e-03,
          -2.88423826e-03, -1.86973438e-02, -1.41757755e-02,
          7.13141682e-03, 2.00802237e-02, 7.13398447e-03,
          -8.72814469e-03, 2.62276502e-03, -1.50489481e-03,
          -1.84783638e-02, -6.96830126e-03, 2.19321600e-03,
          4.61062329e-04, -6.90657133e-03, -9.40623879e-03,
          1.19161112e-02, 1.74423922e-02, 3.47806979e-03,
          -4.98049334e-03, -1.50401918e-02, -1.32459858e-02,
          8.22935719e-03, -9.16620065e-03, -1.58612486e-02,
          -4.54405416e-03, 2.21849270e-02, 7.38240732e-03,
          -4.61670291e-03, 5.78607898e-03, 3.09421588e-03,
          -1.73753535e-03, -5.70288347e-03, -2.45001093e-02,
          1.35914097e-02, 2.14759614e-02, 1.13463784e-02, 7.95368571e-03,
          -1.02140638e-03, -3.24497838e-03, 1.20900571e-02,
          -3.04592773e-03, -1.54305305e-02, -1.01787492e-03,
          3.53341885e-02, 1.74226407e-02, 1.22626126e-02,
          -7.63502903e-03, -9.56393313e-03, 8.89985356e-03,
          2.59972597e-03, -7.60219409e-04, -1.00550447e-02,
          8.07026681e-03, 3.48922610e-03, -3.65036656e-04,
          -5.20387664e-03, -1.19099310e-02, -2.36486411e-03,
          7.99051113e-03, 9.28060990e-03, 2.32665101e-03, 1.56496540e-02,
          1.68177427e-03, -2.62707216e-03, -3.10698710e-03,
          -1.43445225e-03, 2.97793420e-04, -1.31962064e-03,
          -7.28374021e-03, -8.44028126e-03, 1.71104856e-02,
          1.34680467e-02, 2.90759234e-03, -4.76114359e-03,
          -5.49868494e-03, 1.14912761e-03, 4.31996677e-03,
          3.56030161e-03, -6.74890820e-04, 1.43999085e-02,
          7.94424210e-03, 2.70607276e-03, 2.17035995e-04,
          -6.24671951e-03, -1.87966030e-03, 6.72369404e-03,
          -1.33815838e-03, 2.79240240e-03, 1.24057932e-02,
          1.90902385e-03, -2.15994008e-03, -1.12695629e-02,
          1.26854880e-04, 8.50644335e-03, 3.43059830e-04,
          -3.99431167e-03, -1.27723557e-03, 8.13975092e-03,
          -5.90458093e-03, -6.18407410e-03, -8.19538068e-03,
          -8.48713331e-03, -5.49441949e-03, 8.07996560e-03,
          1.71590946e-03, -4.31463635e-03, 4.14176099e-03,
          -3.95202357e-03, -8.42123572e-03, -2.68532895e-03,
          4.05775849e-04, 5.41135669e-03, 8.82776175e-03, 1.77597872e-03,
          -3.09229782e-03, -4.32030763e-03, -1.10140312e-02,
          -2.36567808e-03, -4.48773382e-03, 9.81822517e-03,
          2.29623243e-02, 1.56141026e-02, 8.71688686e-03,
          -1.02737108e-02, -6.42946921e-04, -2.97740242e-03,
          -2.82275677e-03, -1.17820892e-02, 4.66935802e-03,
          1.70023516e-02, 2.05759536e-02, 2.87067937e-03,
          -2.61894930e-02, -1.51733402e-02, -1.45971607e-02,
          -1.73108298e-02, 4.11885185e-03, 8.53677094e-03,
          1.16650397e-02, 1.83280967e-02, 1.03133498e-02,
          -4.33008466e-03, -1.73118082e-03, -7.48422137e-03,
          5.21523831e-03, -8.54126364e-03, 3.17705795e-03,
          1.59224812e-02, 1.46144675e-02, -5.44478069e-04,
          -2.45941114e-02, -1.72535405e-02, -1.80318244e-02,
          -1.44223170e-02, 1.40223198e-03, 5.11455955e-03,
          1.56341754e-02, 8.87609087e-03, -1.72054430e-03,
          -2.52956320e-02, -3.54485051e-03, -1.37317565e-03,
          -3.95831931e-03, -6.16442552e-03, -1.30202679e-03,
          1.26932180e-02, 2.07564719e-02, 1.33388052e-02,
          -9.32641234e-03, -6.38060097e-04, -4.41907614e-04,
          -1.45844941e-03, -1.27529027e-03, 2.90110265e-03,
          1.38285207e-02, 8.90661497e-03, -6.81464002e-03,
          -3.38852145e-02, -1.53362844e-02, -1.23731811e-02,
          -9.82301682e-03, 4.65539610e-03, 7.49518571e-04,
          1.63029488e-02, 2.53888853e-02, 5.42247575e-03,
          -2.43087709e-02, -1.37295201e-02, -9.38348938e-03,
          9.11160139e-04, -1.49701787e-02, -1.05828373e-02,
          -1.48337532e-03, -4.08743042e-03, 1.42658027e-02,
          1.78820675e-03, -8.92187189e-03, -8.90093017e-03,
          -1.32595850e-02, 1.47170294e-03, -2.62906379e-03,
          -2.52937549e-03, -1.35473395e-02, 2.25470662e-02,
          1.15446597e-02, 3.61476629e-03, -2.34627095e-03,
          8.60779313e-04, -6.31821947e-03, -4.82218387e-03,
          1.79924921e-03, 2.41857255e-03, 9.22796596e-03,
          -8.74763355e-03, -6.97672972e-03, -1.10924430e-02,
          -1.43212518e-02, 3.21105146e-03, 1.67420914e-03,
          1.14208814e-02, 2.84572970e-03, 2.33809818e-02,
          -3.79917165e-03, -2.40847329e-03, 3.32155591e-03,
          4.99128550e-03, -6.53891824e-03, -7.93331396e-03,
          -1.36142818e-03, 1.37834623e-02, 2.66097244e-02,
          5.45587996e-03, -2.39110691e-03, -7.58766243e-03,
          -2.97249341e-03, -1.64894592e-02, -1.48910806e-02,
          -4.78733191e-03, 1.89560317e-02, 1.01546319e-02,
          -1.36775263e-02, -1.26531729e-02, -1.40350629e-02,
          -9.06704739e-03, -5.39340777e-03, 3.53567302e-04,
          9.79775283e-03, 2.10085139e-02, 2.55364235e-02, 1.84538879e-03,
          -1.90212298e-02, -6.38623210e-03, 1.81350706e-03,
          -5.94591862e-03, -9.92262550e-03, -8.71080905e-03,
          2.77988464e-02, 3.25562246e-02, -1.87536739e-02,
          -2.06538867e-02, -8.29118583e-03, -5.28607192e-03,
          5.45336166e-03, 1.19130304e-02, 1.06899608e-02, 1.45441561e-03,
          -1.82579029e-02, 4.54841321e-03, 1.54927671e-02,
          3.83092300e-03, 1.46568578e-03, -1.19250396e-03,
          5.31998090e-03, 7.93131255e-03, 2.72904872e-03,
          -1.52964108e-02, -9.57346230e-04, 2.40908284e-02,
          1.42827248e-02, 2.55785533e-03, -2.87350803e-03,
          6.19342877e-03, 6.03470718e-03, -2.35330942e-03,
          -9.15921852e-03, -1.47615653e-02, -1.96231194e-04,
          1.83826880e-04, -7.69319618e-03, 3.10254423e-03,
          1.53266443e-02, 1.07300002e-02, 1.02496529e-02,
          -2.58887690e-02, -1.40687404e-02, 1.04103629e-02,
          1.17956465e-02, 1.42908061e-03, 1.09853770e-03, 7.69277429e-03,
          5.41385217e-03, -5.33545390e-03, -1.23289134e-02,
          1.70836446e-03, 1.24218296e-02, 1.01560280e-02, 2.39251228e-03,
          -3.99389165e-03, -1.68961764e-03, 1.00047160e-02,
          4.05158103e-03, 6.16042526e-05, -1.93742185e-03,
          5.11164777e-03, -2.60835490e-03, -1.66207668e-03,
          8.18506349e-03, 1.89227965e-02, 1.83213018e-02,
          -3.03126359e-03, -2.28315312e-02, -9.61825717e-03,
          7.83602148e-03, 1.68113019e-02, 1.40448520e-02, 3.18392040e-03,
          7.29322713e-03, 3.55050457e-03, -5.94362291e-03,
          -2.09185611e-02, -9.90112405e-03, 4.89451597e-03,
          1.20959235e-02, 1.34979300e-02, -1.21070137e-02,
          -5.38058719e-03, 1.88521836e-02, 2.31364965e-02,
          1.73240565e-02, 5.03940322e-03, 5.67905651e-03,
          -4.28410107e-03, -1.84589613e-03, -8.25700723e-03,
          7.34081725e-04, 1.36167044e-02, 2.58135367e-02, 5.78964734e-03,
          -4.63987468e-03, 4.52528941e-03, -4.02712496e-03,
          8.45156237e-03, -4.45542485e-03, 2.94152927e-03,
          3.22067551e-03, -8.11039098e-03, -1.48888407e-02,
          -1.35646686e-02, -6.78312033e-03, 2.48751091e-03,
          8.01698491e-03, -6.74434146e-03, -2.10058922e-03,
          -2.71960301e-03, 6.48469850e-03, -1.34803532e-02,
          -1.72092151e-02, 4.58257226e-03, 3.27355159e-03,
          2.52839644e-03, 8.26736167e-03, 9.21618659e-03, 1.30222822e-02,
          2.29035448e-02, 8.32751248e-05, -1.04010394e-02,
          -9.97328083e-04, -3.23180691e-03, 1.20691350e-02,
          2.94741662e-03, 3.72056384e-03, 7.44048785e-03, 1.05542447e-02,
          -5.14620310e-03, -1.90631598e-02, -1.29046775e-02,
          -1.50770182e-02, -2.43792753e-03, 6.78205257e-03,
          1.24539183e-02, 8.31378158e-03, 1.61642414e-02,
          -7.71007780e-03, -1.83081683e-02, -3.74304503e-03,
          -1.81457365e-03, 1.14501193e-02, -1.34972599e-03,
          5.38861379e-03, 1.92389153e-02, 5.48980525e-03,
          -1.56272016e-03, -1.50969299e-02, -1.05860652e-02,
          -1.36986990e-02, 1.47518096e-03, 1.02581950e-02,
          9.83027276e-03, 1.92971788e-02, 1.09490883e-02,
          -3.25859315e-03, -3.40274684e-02, -1.35333622e-02,
          -8.93602706e-03, 3.66482825e-04, 6.76505361e-03,
          1.47926696e-02, 1.48132816e-02, 1.59542952e-02, 5.78141119e-03,
          -2.52972152e-02, -1.47024235e-02, -2.21794192e-02,
          -5.12580527e-03, 3.60325328e-03, 1.50710344e-02,
          3.13679762e-02, 1.01574166e-02, 1.50337548e-03,
          -1.79177690e-02, -1.03653111e-02, -1.21702673e-02,
          -5.40859392e-03, 7.34016579e-03, 1.21127991e-02,
          2.07405370e-02, 4.39983560e-03, 5.27562294e-03,
          -1.65113080e-02, -1.81705609e-03, -1.10278009e-02,
          -2.08119350e-03, -4.16414673e-03, -6.13209151e-04,
          7.42717413e-03, 1.07642189e-02, 2.46659555e-02,
          -8.54872726e-03, -5.17088687e-03, -1.51984626e-02,
          -7.24603422e-03, 3.92753538e-03, 1.22639420e-03,
          7.98387267e-03, -2.36884668e-03, 1.88240800e-02,
          -9.59587190e-03, -5.43530425e-03, 3.00367037e-03,
          1.26504358e-02, -8.62652622e-03, -7.35121779e-03,
          9.35901131e-04, 1.27529511e-02, 1.72565375e-02,
          -2.47451812e-02, -9.59709845e-03, -2.06472538e-02,
          -1.19848037e-02, -8.45700130e-03, -9.97200236e-03,
          -8.64962209e-03, 4.55291802e-03, 1.65229253e-02,
          -1.63778253e-02, -6.03734003e-03, -5.22060413e-03,
          2.26418371e-03, -2.70652887e-03, -5.18203620e-03,
          -1.23666495e-03, 9.08846594e-03, 1.86466090e-02,
          -6.46512024e-03, -1.67318508e-02, 2.09336658e-03,
          8.06217548e-03, -2.05925317e-03, 6.86724728e-04,
          -1.01331128e-02, 4.26733075e-03, 2.91393101e-02,
          -1.85148995e-02, -1.87772028e-02, -1.95890985e-04,
          -3.50060058e-04, -1.41192405e-02, -1.21593336e-02,
          -6.15708018e-03, 6.68750750e-03, 1.79038309e-02,
          -7.62913236e-03, -3.79188987e-03, -2.00364552e-03,
          -5.25563350e-03, -5.75850997e-03, 3.62156029e-03,
          3.87155800e-03, -9.90563771e-04, 1.37297474e-02,
          -1.22050196e-02, -6.39094412e-03, 2.12764391e-03,
          -1.78575341e-03 ]
   decision_functions:
      -
         sv_count: 1
         rho: 3.9949234986402243e-01
         alpha: [ 1. ]
