<?xml version="1.0"?>
<opencv_storage>
<opencv_ml_svm>
  <format>3</format>
  <svmType>EPS_SVR</svmType>
  <kernel>
    <type>LINEAR</type></kernel>
  <C>1.0000000000000000e-02</C>
  <p>1.0000000000000001e-01</p>
  <term_criteria><epsilon>1.0000000000000000e-03</epsilon>
    <iterations>1000</iterations></term_criteria>
  <var_count>3780</var_count>
  <sv_total>1</sv_total>
  <support_vectors>
    <_>
      2.06821202e-03 7.10752327e-03 1.02475584e-02 4.05590096e-03
      4.29656636e-03 -6.05744915e-03 -7.84345809e-03 -2.10565305e-03
      4.77424357e-03 7.76440604e-04 1.01963319e-02 1.24261361e-02
      8.31400510e-03 3.13572073e-03 -2.51728925e-03 -6.18787389e-03
      -2.34927912e-03 4.67183581e-03 3.74348368e-03 1.75239064e-03
      2.68187490e-03 -4.85522347e-03 -9.28273599e-04 -1.37558230e-03
      -5.42827602e-03 -1.68557174e-03 5.04924590e-03 8.66923854e-03
      1.32033629e-02 8.37009307e-03 7.24289275e-04 2.10273941e-03
      4.43657348e-03 -1.29854120e-03 -2.88814493e-03 1.08337812e-02
      1.41400227e-03 3.03647364e-03 7.58890389e-03 7.21621653e-03
      -3.46814888e-03 2.49420921e-03 3.29033216e-03 4.43473691e-03
      5.94677683e-03 3.61921638e-03 3.95643571e-03 7.74588948e-03
      4.45209909e-03 -1.46020949e-03 -8.72839615e-03 2.23141117e-03
      -4.17281437e-04 1.61812047e-03 7.77020864e-03 6.01820135e-03
      1.20224142e-02 1.13771402e-03 -6.59108907e-03 8.76595639e-03
      8.40727519e-03 2.81935185e-03 8.66290834e-03 6.65203342e-03
      9.94287338e-03 9.16413777e-03 2.74483114e-03 -1.08804344e-03
      -3.32822208e-03 3.31697142e-04 -5.53353503e-03 6.62914105e-03
      -1.62958415e-04 1.15130574e-03 9.85732768e-03 3.16524203e-03
      -5.32864500e-03 -8.96968599e-03 -3.13768373e-03 -5.56372106e-04
      1.43610733e-03 -1.87816622e-03 1.50182145e-03 1.57587249e-02
      1.29522001e-02 9.32286587e-03 1.95845822e-03 -2.92887096e-03
      -3.40735796e-03 -2.08735978e-03 5.60392113e-03 9.16507561e-03
      1.41318291e-02 3.13879037e-03 -1.15376234e-03 -1.04097677e-02
      -3.73847387e-03 -5.74512221e-03 4.65530378e-04 3.45690246e-03
      8.99870228e-03 1.85777657e-02 1.21502830e-02 8.78340937e-03
      -6.74320944e-03 -3.59522249e-03 -2.20399059e-04 3.09626176e-03
      3.45211069e-04 -2.21798290e-03 1.02739977e-02 7.21380766e-03
      5.05630998e-03 3.78585304e-03 4.02466673e-03 1.99115789e-03
      -3.91063327e-03 -6.07559178e-03 2.22753413e-04 7.85078388e-03
      5.12081059e-03 -3.57263302e-03 -6.88562403e-03 -8.31139041e-04
      -3.21369502e-03 -9.06193908e-03 7.84508791e-03 1.09715248e-02
      1.39188878e-02 7.57831289e-03 2.44021299e-03 3.57094425e-04
      5.20562986e-03 5.83751732e-03 8.43872223e-03 -4.17835603e-04
      3.77082615e-03 6.55493746e-03 2.14003213e-03 -5.36031695e-03
      -1.17570895e-03 7.60048674e-03 3.76190664e-03 2.44920026e-03
      -1.59806397e-03 1.06695239e-02 1.26546612e-02 1.74291036e-03
      -4.28219745e-03 -8.02894589e-03 2.58405064e-03 3.02509079e-03
      -2.73022405e-03 -8.53283971e-04 8.19117669e-03 4.71099606e-03
      -1.91409898e-03 -3.26801441e-03 8.09870544e-04 1.02342879e-02
      5.04013384e-03 -2.31834059e-03 3.56535614e-03 8.34470615e-03
      5.40924771e-03 -5.13458671e-03 -3.78533010e-03 -8.89269076e-03
      6.55653095e-03 4.63177962e-03 5.05440077e-03 3.76529433e-03
      9.87029355e-03 3.82044073e-03 -8.41310190e-04 -9.12491450e-05
      2.63184262e-03 7.32498476e-03 7.97606446e-03 7.47872330e-03
      -2.02570250e-03 -6.36174867e-04 1.59851229e-03 -6.16578211e-04
      9.98320174e-04 2.86632287e-03 1.12206563e-02 4.69319755e-03
      -2.91319611e-03 -2.94829323e-03 -3.81465419e-03 -2.12245999e-04
      -3.46408458e-03 3.40353436e-04 3.97867989e-03 6.35449169e-03
      2.03522155e-03 -3.91215226e-03 2.61994987e-03 4.52798605e-03
      8.90482496e-03 3.16089811e-03 -4.17735457e-04 -2.00894987e-03
      5.76443411e-03 8.43823701e-03 5.76108648e-03 1.62924512e-03
      4.44156257e-03 1.22272689e-02 2.69569363e-03 6.00273395e-03
      -1.51451025e-03 4.76039480e-03 5.40227909e-03 5.80632640e-03
      3.43363010e-03 5.95146616e-04 -3.18100247e-05 -3.74600687e-03
      4.96658403e-03 7.70963915e-03 1.02304937e-02 5.55671984e-03
      1.87262672e-03 -5.39430417e-03 -8.24066624e-03 -7.08800275e-03
      -1.47768315e-02 1.46384758e-03 3.42082791e-03 4.63895360e-03
      1.03912828e-03 -5.85842598e-03 7.55708246e-03 7.43508851e-03
      3.22184479e-03 -3.58104990e-05 1.23802172e-02 4.97868843e-03
      1.66738331e-02 1.15324762e-02 4.93391138e-03 -2.02229293e-03
      -3.10564949e-03 -6.79927273e-03 -1.24596963e-02 6.95928419e-03
      2.22411193e-03 9.78351291e-03 9.39710415e-04 -8.54384713e-03
      3.49170901e-03 4.53314697e-03 6.33210759e-04 -8.07619840e-03
      -6.41462486e-03 1.48611446e-03 -1.72565505e-03 3.28039448e-03
      8.20275303e-03 9.59295034e-03 9.58025642e-03 5.91906207e-03
      1.25165074e-03 5.36326226e-03 1.06359962e-02 8.93880613e-03
      7.83805829e-03 1.58323180e-02 8.15139152e-03 9.67719406e-03
      4.98082209e-03 -7.99050834e-03 -7.34530436e-03 -1.27331167e-02
      -7.25669321e-04 1.31948327e-04 6.05753809e-03 1.25046708e-02
      1.03752846e-02 5.94250299e-03 -4.20894660e-03 3.85453575e-03
      -2.34816689e-03 5.78118535e-03 1.25093227e-02 1.35080293e-02
      4.73561697e-03 2.70821946e-03 5.72531251e-03 2.65513989e-03
      2.51249969e-03 7.10517960e-03 5.59895765e-03 5.91778371e-04
      5.76923508e-03 3.71319125e-03 8.76181107e-03 1.31821260e-02
      5.35929948e-03 2.88733817e-03 -2.50009471e-03 -3.72934854e-03
      -6.93217572e-03 5.80864202e-04 3.47134890e-03 3.41604138e-03
      4.26050369e-03 -5.53260464e-03 -2.15028849e-04 -5.08293393e-04
      3.91912414e-03 5.07638184e-03 5.26955118e-03 7.98137335e-04
      6.71189185e-03 1.10976016e-02 8.70170537e-03 -1.66917383e-03
      -3.75139294e-03 -6.03246968e-03 -1.08374516e-02 -3.82229709e-03
      3.91192734e-04 6.36557629e-03 6.17633248e-03 2.97440565e-03
      -5.32759028e-03 -6.43457193e-03 -6.40672725e-03 -7.25553138e-03
      -1.13938411e-03 8.16826336e-03 9.46459733e-03 1.68458198e-03
      4.79302416e-03 -1.98845286e-03 -9.82854050e-03 -6.35234406e-03
      -9.33569856e-04 9.30477586e-03 6.28208695e-03 1.56259164e-02
      1.27508668e-02 6.84119621e-03 -4.62763943e-03 -5.77507820e-03
      -9.97409504e-03 -9.14248079e-03 1.33731926e-03 1.17802517e-02
      1.23412767e-02 -2.60563637e-03 -1.67061307e-03 -1.08952643e-02
      -7.50443758e-03 -1.01793483e-02 -4.56049154e-03 1.68095306e-02
      1.62328146e-02 1.45137683e-02 7.05579715e-03 2.89715151e-03
      -1.03329506e-03 -6.12804201e-04 1.99883361e-03 8.70509353e-03
      1.39182527e-02 5.70875267e-03 6.73910649e-03 4.81354771e-03
      -5.08266222e-03 -1.16185145e-02 -7.62961805e-03 -2.76714726e-03
      3.96065705e-04 5.65136876e-03 1.41946115e-02 1.12162549e-02
      7.56733119e-04 -4.87321056e-03 -8.74787476e-03 -3.47649539e-03
      -2.98532844e-03 4.42269165e-03 1.96482018e-02 4.00028657e-03
      3.14481818e-04 -7.13403197e-03 -8.32247548e-03 -6.83632633e-03
      -7.56362407e-03 -8.57630931e-03 1.69099402e-03 5.62771223e-03
      9.22802836e-03 1.44258356e-02 6.99846353e-03 -3.68979457e-03
      -1.24836969e-03 -6.07688306e-03 -6.24873966e-04 1.14087947e-03
      1.03986552e-02 1.10845966e-02 1.66558344e-02 8.15318059e-03
      -3.39761097e-03 -8.27053655e-03 -7.26408651e-03 8.31344340e-04
      6.95238728e-03 1.01590920e-02 3.33129405e-03 2.50699185e-03
      1.01703615e-03 2.32407846e-03 7.87767785e-05 -3.79304431e-04
      -3.87857412e-03 -2.88642506e-04 5.07063000e-03 1.18067500e-03
      5.91279613e-03 -1.71364821e-03 9.36669181e-04 -5.85509837e-03
      -7.08429329e-03 -1.31880702e-03 7.08226056e-04 4.13593370e-03
      3.12224007e-03 5.62734995e-03 7.04997778e-03 1.00844679e-03
      -1.20676644e-02 -7.81182200e-03 1.34299917e-03 5.52109815e-03
      3.56010045e-03 2.62603723e-03 3.39426589e-03 5.38264122e-03
      3.66209936e-03 6.68592891e-03 -2.16080181e-04 3.42404936e-03
      4.31335997e-03 4.14410001e-03 2.44513992e-03 1.24901335e-03
      2.47171428e-03 1.98784820e-03 -9.24026873e-03 -6.86937245e-03
      -1.69730990e-03 -4.09252429e-03 -3.78829980e-04 4.22295136e-03
      7.76054803e-04 2.06966768e-03 5.87428361e-03 5.69559028e-03
      4.09905147e-03 3.41201131e-03 -8.08412209e-04 2.98855035e-03
      1.82644860e-03 1.88199093e-03 -3.57207237e-03 2.25846554e-04
      1.05244201e-02 4.48925700e-03 1.41807999e-02 8.43216758e-03
      2.57256860e-03 -1.47577550e-03 -2.53358926e-03 -1.03598135e-02
      -1.38511984e-02 8.02591909e-04 8.93746153e-04 4.46070451e-03
      -2.00640774e-04 -6.09879196e-03 5.18002920e-03 2.00408278e-03
      -4.28201485e-04 1.64043129e-04 1.10551333e-02 1.04970606e-02
      8.16942099e-03 1.88321923e-03 6.91358699e-03 5.90515882e-03
      4.11554473e-04 -4.08247905e-03 -4.64341650e-03 -5.17629844e-04
      -8.05354211e-04 -1.77807349e-03 -2.45163054e-03 2.60282145e-03
      2.38960842e-03 2.12355470e-03 3.19423480e-03 -9.94916912e-03
      -2.92645814e-03 -9.23111569e-03 -2.58188549e-04 3.68429394e-03
      4.74071503e-03 8.24084226e-03 5.26667060e-03 4.24206676e-03
      -6.73763640e-03 3.61155812e-03 3.16140661e-03 8.67159199e-03
      1.19789578e-02 9.30845551e-03 1.43545389e-03 6.66106003e-04
      9.11976025e-03 -3.84208560e-03 1.94028288e-03 -3.92567879e-03
      1.50076376e-04 1.94654404e-03 3.21556116e-03 8.42959341e-03
      6.65637385e-03 1.34333428e-02 1.53952115e-03 4.25631646e-03
      -7.67315505e-04 7.22193485e-03 1.10453619e-02 1.08804377e-02
      6.29834319e-03 7.62687391e-03 6.30497374e-03 -7.22760428e-03
      -7.53018307e-03 -1.55628205e-03 3.12321167e-03 4.93123010e-03
      4.20865323e-03 5.16096363e-03 1.58267505e-02 1.35933794e-02
      2.61436892e-03 -2.39955145e-03 -2.42227642e-03 -6.30339142e-04
      -4.99459542e-03 3.37024219e-03 6.30296068e-03 9.30556376e-03
      1.27276564e-02 -1.75633712e-03 -9.01848357e-03 2.58894288e-04
      5.91028808e-03 -1.68033555e-04 3.53940134e-03 1.04046958e-02
      1.65005382e-02 7.60099385e-03 1.98490088e-04 -4.80565056e-03
      2.04148469e-03 2.21673981e-03 -4.63585323e-03 2.36228202e-03
      9.95676406e-03 1.84061714e-02 1.46240061e-02 4.55041742e-03
      -9.71904490e-04 -3.23605887e-03 -5.45396889e-03 -7.52249034e-03
      3.51371360e-03 1.37229096e-02 1.60011817e-02 4.46553947e-03
      -3.06010043e-04 -8.95275362e-03 -1.22138970e-02 -1.05204992e-02
      -4.31469223e-03 1.28160976e-02 4.31810739e-03 6.71346905e-03
      2.12569628e-03 -8.18825909e-04 1.28526310e-03 -1.82749494e-03
      7.97423883e-04 -6.32299576e-03 6.71917442e-05 8.44101247e-04
      9.49921086e-04 -3.53291840e-03 -7.93057401e-03 -4.61118342e-03
      -1.33256456e-02 -7.79152475e-03 -2.03379919e-03 3.10977851e-03
      1.27429841e-02 5.90364216e-03 4.50913981e-03 3.92678753e-03
      4.58952010e-04 4.80854302e-04 1.47932454e-03 1.04324063e-02
      1.80397611e-02 -3.57183372e-03 -6.75706286e-03 -5.58629865e-03
      -6.14611991e-03 3.99350934e-03 2.81581539e-03 3.37947812e-03
      7.19075417e-03 1.32273894e-03 1.65007403e-03 -3.80596379e-03
      1.82025848e-04 -1.44316501e-03 1.10760622e-03 -3.21836281e-03
      2.45916611e-03 9.56225302e-03 8.54954589e-03 -9.00040101e-03
      -1.58635247e-02 -8.95048492e-03 -4.45786119e-03 3.99043597e-03
      1.64765201e-03 2.10272404e-03 2.12949514e-03 -4.78238333e-03
      -5.05103311e-03 -3.64825292e-03 2.80071073e-03 7.91067351e-03
      8.61528236e-03 6.13562483e-03 1.21281936e-03 2.87840550e-04
      -3.11637041e-03 5.73019788e-04 -5.88444469e-04 6.32167188e-03
      2.78326031e-03 3.48469662e-03 2.75145937e-03 -4.47234401e-04
      -1.44775084e-03 5.96525380e-04 -8.89693480e-03 -1.02226697e-02
      -3.28742620e-03 -2.65635783e-03 5.85555052e-03 1.21911466e-02
      7.41418963e-03 5.06287301e-03 -4.54962905e-03 -6.98273629e-03
      -7.85375480e-03 -2.96505005e-03 -6.86045503e-03 8.97116121e-03
      3.56920087e-03 2.23061512e-03 1.70016458e-04 -4.43598954e-03
      -2.37698457e-03 -6.03234628e-03 -2.63562147e-03 -4.46145097e-03
      -4.34611179e-03 -5.29963570e-03 2.51931255e-03 -2.62835925e-03
      -1.16627011e-03 2.09112931e-03 -3.43537983e-03 -1.78754167e-03
      6.96362276e-03 1.06814010e-02 1.10859415e-02 7.84130953e-03
      3.29543138e-03 3.00560053e-03 -8.32843781e-03 -7.64915906e-03
      -5.24940388e-03 -1.00338981e-02 -2.02628667e-03 -5.83292451e-03
      -2.67845637e-04 -3.39799328e-03 -1.33083568e-05 -3.89352138e-03
      -3.00539983e-03 5.08373079e-04 3.76801332e-03 5.25984506e-04
      -2.68186047e-03 6.31167088e-03 4.28428454e-03 1.41797343e-03
      1.81717600e-03 -5.00951940e-03 -6.10298617e-03 -9.24682303e-04
      1.17665352e-02 1.36297345e-02 8.38073250e-03 -6.06829475e-04
      8.25940107e-04 -2.06055213e-03 -7.97479507e-03 -9.45114624e-03
      -9.59833711e-03 5.93680306e-04 2.53582071e-03 -2.65668728e-03
      -4.39580623e-03 -3.91067378e-03 -3.69866472e-03 -4.99669462e-03
      -1.93969172e-03 -4.33530007e-03 -6.17788406e-03 -1.33757095e-03
      9.87259671e-03 8.04544240e-03 -2.04208400e-03 -5.44558885e-03
      -5.92353335e-03 -7.23628560e-03 -1.48350978e-02 -2.19032285e-03
      4.62759892e-03 8.85908213e-03 7.36667251e-04 -5.21437731e-03
      8.43314920e-04 3.53376078e-03 8.51977710e-03 -7.98392016e-03
      -7.69408513e-03 -3.54529289e-03 1.77752372e-04 5.70486533e-03
      3.78409401e-03 2.33198865e-03 6.28377020e-04 1.02458782e-02
      1.08250335e-03 -6.61268889e-04 -6.60822378e-04 4.79106000e-03
      6.06320053e-03 6.43476006e-03 5.44532714e-03 4.80429363e-03
      2.93744542e-03 -7.73653854e-03 -1.02588907e-02 -9.18849930e-03
      5.53732179e-03 1.14243431e-02 8.40778556e-03 1.30904780e-03
      9.36167222e-03 1.79921817e-02 7.61045842e-03 -1.39150431e-03
      2.71602464e-03 1.98655482e-03 6.10935828e-03 2.21603899e-03
      5.61620528e-03 1.02042304e-02 1.39943948e-02 1.18654245e-03
      -7.86580890e-03 1.23447238e-03 5.22217993e-03 7.18540454e-04
      1.64340192e-03 6.57479092e-03 1.13649052e-02 3.91383516e-03
      -6.54606940e-03 -7.30152568e-03 3.85788106e-03 2.02005845e-03
      -2.02208851e-03 1.38883002e-03 3.87500878e-03 1.12431487e-02
      2.07516532e-02 8.52170773e-03 -4.91474196e-03 3.84464837e-03
      4.61336505e-03 9.48468689e-04 -2.16093916e-03 5.70071256e-03
      1.19701959e-02 1.16963312e-02 1.16859225e-03 -1.32817021e-02
      -3.52291553e-03 1.64310134e-03 5.12894359e-04 1.32915983e-03
      6.57968782e-03 1.12769417e-02 2.05324439e-04 -4.44585038e-03
      1.89120765e-03 7.02101970e-03 1.89567136e-03 1.09962421e-03
      3.28760385e-03 -1.12730672e-03 3.58991907e-03 -3.44531867e-03
      -6.12765783e-03 -1.58223003e-04 3.26307747e-03 3.24418489e-03
      1.49370451e-03 -3.54567921e-04 6.19926117e-03 1.66012123e-02
      9.43450071e-03 -1.64970628e-03 -5.62613411e-03 -3.63897113e-03
      -5.28311182e-04 -6.08829723e-04 1.31556066e-03 2.44631013e-03
      3.68370907e-03 2.36642896e-03 -2.31177127e-03 -8.42979364e-03
      3.59208719e-03 6.63915277e-03 1.13427481e-02 2.74156709e-03
      2.36345848e-04 -1.91710086e-03 -1.71203166e-03 -1.03459565e-03
      9.85028222e-04 1.06791416e-02 3.77231161e-03 6.28207065e-03
      3.49525642e-03 -5.81100769e-03 -1.44783715e-02 -8.94855242e-03
      5.01408824e-04 7.76065420e-03 7.68449111e-03 3.01778829e-03
      7.64312129e-03 -1.26758264e-03 -1.26702164e-03 -4.18481790e-03
      1.12082472e-03 -3.24574474e-04 -1.87674025e-03 1.32311694e-02
      1.14483191e-02 1.31038530e-02 4.14805982e-04 -1.24387816e-02
      -1.73376817e-02 -1.17521780e-02 -3.54819186e-03 1.85929041e-03
      3.34729883e-03 6.37460174e-03 6.41135048e-05 -6.63877744e-03
      -9.03395936e-03 -1.25606181e-02 -9.34877247e-03 -4.84579755e-03
      3.12812557e-03 1.60747226e-02 1.23525849e-02 1.07181594e-02
      -5.03593823e-03 -8.80580209e-03 -6.18562568e-03 -1.05789676e-02
      -1.46064442e-02 9.36347176e-04 4.69677849e-03 8.46884400e-03
      5.52388420e-03 -3.19131464e-03 -9.45486687e-03 -1.22120678e-02
      -1.19054699e-02 -7.58181885e-03 -2.60926463e-05 1.69922635e-02
      1.97068006e-02 9.66639444e-03 -4.83459746e-03 -1.20411608e-02
      -1.22196367e-02 -1.26407500e-02 -1.33207701e-02 -3.84814944e-03
      1.51460310e-02 2.19504721e-02 1.42773185e-02 -3.24384752e-03
      -9.11779143e-03 -5.97691443e-03 -7.01298751e-03 -9.42606293e-03
      2.36691115e-03 6.62211701e-03 1.29935732e-02 2.24528322e-03
      -2.53976160e-03 -8.77244305e-03 -5.28121227e-03 2.34396942e-03
      5.11688646e-04 -1.35292346e-03 8.17098073e-04 7.29301805e-03
      9.59652290e-03 -1.39125972e-03 -1.18669188e-02 -1.41412821e-02
      -1.24989785e-02 -7.63290515e-03 2.54217093e-03 1.26748737e-02
      2.05345545e-02 6.02214178e-03 -4.59046476e-03 -1.28462333e-02
      -1.30190449e-02 -5.19969640e-03 -1.85915024e-03 4.07675514e-03
      -3.02820234e-03 3.86057957e-03 -1.77632319e-03 -3.80370696e-03
      -6.95347413e-03 -6.23633014e-03 -2.58584926e-03 -1.23250186e-02
      -1.19592818e-02 -6.64709602e-03 7.96946697e-03 4.81570140e-03
      -1.58167374e-03 -5.93271805e-04 2.20741890e-03 -4.06162435e-04
      -1.33959511e-02 -2.55288649e-03 1.45772053e-03 7.30852550e-03
      5.67642832e-03 1.63462118e-03 -1.04338145e-02 -6.95108064e-03
      -2.72191968e-03 -9.03277099e-03 -7.20857643e-03 -6.03188761e-03
      2.63907877e-03 8.68165633e-04 -2.11943290e-03 2.50049424e-03
      2.04987638e-03 -1.39614230e-03 -1.07211396e-02 2.76505342e-03
      9.67062637e-03 1.22149009e-02 8.99529085e-03 3.97561444e-03
      2.70057423e-03 4.15235711e-03 6.55471068e-03 1.01587479e-03
      -1.07528241e-02 -1.06762750e-02 5.50024165e-03 6.99034333e-03
      7.49245053e-03 -4.64521931e-04 9.55252349e-03 1.51295997e-02
      9.54891462e-03 -8.34327936e-03 -4.84940223e-03 1.23273442e-03
      2.54838984e-03 -9.69878965e-05 -5.08674828e-04 5.05882781e-03
      1.50971236e-02 1.51099898e-02 -8.63078050e-03 -1.40282521e-02
      4.98000626e-03 5.89991082e-03 2.41011078e-03 -1.41465012e-03
      1.24404021e-02 1.59694497e-02 1.03850421e-02 -1.20657710e-02
      -1.24240275e-02 3.34140868e-03 4.91491193e-03 4.99396026e-03
      7.14842975e-03 1.57428440e-02 1.81235913e-02 9.82223731e-03
      -1.33128623e-02 -4.52851644e-03 1.73176255e-03 1.40297096e-04
      3.15864163e-04 6.79272600e-03 1.93741526e-02 1.60286296e-02
      4.11788141e-03 -1.57358646e-02 -1.50984544e-02 -2.93730339e-03
      -3.52277490e-03 -1.92919245e-03 4.57916316e-03 1.86129604e-02
      1.87549014e-02 4.07581776e-03 -1.48690213e-02 -6.40707416e-03
      3.34400125e-03 5.62866405e-03 4.57022246e-03 7.00846454e-03
      1.51036372e-02 1.53873675e-02 8.78911186e-03 -8.91653821e-03
      -1.23160640e-02 -1.26038014e-03 -2.42551509e-03 1.04936189e-03
      4.36471123e-03 1.40310954e-02 1.15576126e-02 9.36680194e-03
      -4.75433981e-03 -1.42582487e-02 -7.28047977e-04 4.81047609e-04
      -1.43558043e-03 2.59837630e-04 2.15068553e-03 1.63423002e-03
      6.20835228e-03 -4.62467643e-03 -3.88863101e-03 4.71182074e-03
      5.89264045e-03 1.63631584e-03 6.15726924e-03 1.45408884e-02
      1.50703415e-02 1.56630594e-02 -2.29349220e-03 -1.00072837e-02
      1.05758815e-03 3.19008785e-03 1.89774961e-03 -9.21858707e-04
      5.99572435e-03 8.97452328e-03 8.78487527e-03 -3.64055450e-04
      -7.91098271e-03 1.34356041e-03 7.18833087e-03 3.80510348e-03
      -3.12010059e-03 -2.70458590e-03 -2.58298125e-04 5.06321667e-03
      -3.49359843e-03 4.87889629e-03 1.17708305e-02 1.10466499e-02
      -3.98068596e-03 -1.18302414e-02 -1.10053746e-02 -8.52535199e-03
      3.27546964e-04 3.12065822e-05 8.77347309e-03 5.83414314e-03
      1.18161552e-03 -9.11544543e-03 -2.05866015e-03 9.42228886e-04
      7.20509980e-03 2.23591854e-03 5.59232896e-04 -7.73353269e-04
      7.29143247e-03 8.03871546e-03 1.92546705e-03 -5.50230499e-03
      5.99061837e-04 1.15477294e-03 4.66459338e-03 6.97198976e-03
      8.80329963e-03 6.99874200e-03 3.96582577e-03 -4.46330709e-03
      -8.93538259e-03 -9.60448105e-03 -7.17490586e-03 9.55839787e-05
      -8.72540229e-04 2.05936581e-02 2.10681017e-02 8.86624213e-03
      -6.74332492e-03 -8.00348539e-03 -7.89193809e-03 -8.68502166e-03
      -8.51051230e-03 -7.72557221e-04 1.28577119e-02 1.79527681e-02
      7.51454476e-03 -5.11507224e-03 -6.46747556e-03 -2.59140227e-03
      5.51402161e-04 5.69875678e-03 3.44629562e-03 1.43430568e-02
      1.57777425e-02 2.85070110e-03 -4.63704392e-03 -1.32910190e-02
      -8.16623773e-03 -6.15564547e-03 -5.78813581e-03 -9.94315924e-05
      7.02336850e-03 1.51342358e-02 2.23022886e-03 -9.11822263e-03
      -8.38404614e-03 -9.63564869e-03 -1.16962520e-02 -6.86973846e-03
      1.45655582e-02 1.38510959e-02 1.50966160e-02 3.83933354e-03
      -7.49185774e-03 -1.03050908e-02 -1.04053840e-02 -2.03036540e-03
      4.00059205e-03 9.83364321e-03 8.60466063e-03 3.24416487e-03
      1.69723982e-03 -7.62427785e-03 -1.31171700e-02 -1.01482868e-02
      -9.99756902e-03 -7.80277699e-03 6.15453068e-03 7.02345930e-03
      8.00842792e-03 -8.53198639e-04 -8.90689716e-03 -1.29416334e-02
      -1.19326692e-02 -2.92061735e-03 7.20134890e-03 1.28487535e-02
      1.50228972e-02 3.99642345e-03 -2.23100162e-03 -8.02288111e-03
      -1.08579081e-02 -7.21473293e-03 -1.56430842e-03 -3.96084646e-03
      -6.37521734e-03 2.17435285e-04 -4.71606897e-03 -1.23115699e-03
      -4.51294892e-03 2.20757956e-03 4.52190731e-03 4.04406339e-03
      -6.47561578e-03 4.46099229e-03 1.34587530e-02 3.74223245e-03
      6.14965893e-03 2.78464914e-03 -1.24573242e-02 -1.09574739e-02
      -2.44198949e-03 -3.27427115e-04 5.20368014e-03 6.84975088e-03
      -1.04894936e-02 -5.13441674e-03 -6.92268228e-03 3.42677906e-03
      -8.66086222e-04 2.30742758e-03 -5.61565952e-03 1.08773569e-02
      1.68497097e-02 -6.11510407e-03 1.50586560e-03 7.10081169e-03
      3.36480397e-03 4.00819443e-03 9.23572667e-03 1.23076616e-02
      -9.81690595e-04 -6.62541436e-03 2.19615805e-03 1.90878590e-03
      8.64568981e-04 -9.85432067e-04 1.87010434e-03 1.04903951e-02
      1.10007683e-02 -1.07727060e-02 -9.87184234e-03 -1.49855088e-03
      1.51608780e-03 7.87389406e-04 1.03348901e-03 2.21810653e-03
      6.54036039e-03 1.20274452e-02 8.85784440e-03 2.05837027e-03
      -3.25793005e-03 -4.45708074e-03 -4.56639566e-03 -3.43838939e-03
      -3.70604731e-03 1.98925450e-03 7.00020697e-03 2.90471915e-04
      1.75106223e-03 -3.91261280e-03 -5.98024391e-03 -2.56806775e-03
      2.73051765e-03 4.06308006e-03 8.66340660e-03 5.66374464e-03
      -1.00324200e-02 -1.37480721e-03 2.56511359e-03 3.44966725e-03
      6.22542202e-03 3.57935997e-03 7.28875771e-03 1.39838634e-02
      1.06833493e-02 -3.03443195e-03 -4.88653360e-03 2.39139982e-03
      2.65674869e-04 2.04738652e-04 -2.45377747e-03 -5.25420019e-03
      -3.74067365e-03 -2.70301796e-04 -2.86120037e-03 6.73639309e-03
      4.47920896e-03 1.51686036e-04 4.99784306e-04 8.74851321e-06
      1.09341834e-03 9.28025879e-03 7.66106648e-03 -3.97293875e-03
      7.69771729e-03 4.61089844e-03 2.20492668e-03 -2.40565324e-03
      3.27053037e-03 1.22924270e-02 1.58101413e-02 1.52607877e-02
      -7.52118230e-03 -6.32961001e-03 -8.76754872e-04 1.37369696e-03
      -1.02187670e-03 -3.68692656e-03 3.03085917e-03 8.16702936e-03
      7.06091989e-03 -7.57901650e-03 -1.18525494e-02 -9.41638369e-04
      4.15908266e-03 -3.61329550e-03 4.13181726e-03 1.30804013e-02
      1.90092083e-02 1.47845503e-02 -5.89412404e-03 1.55063084e-04
      6.17360882e-03 3.46830580e-03 -1.09811639e-03 -3.41336313e-03
      1.11686578e-02 9.74277128e-03 5.77390334e-03 -6.23994786e-03
      -1.09759038e-02 -4.82715620e-03 -3.09670251e-03 -5.23503032e-03
      -4.27781045e-03 8.84938927e-04 6.12131879e-03 6.82443148e-03
      1.87443150e-03 -5.38467010e-03 -2.52930191e-03 1.69890455e-03
      -1.53926818e-03 -5.63430088e-03 2.74011894e-04 -2.84166890e-03
      7.45061040e-03 3.52778169e-03 5.20882616e-03 2.57622101e-04
      2.18791398e-03 -4.36633639e-03 -5.67127857e-03 5.12377964e-03
      1.39194857e-02 9.11957305e-03 4.62699390e-04 -6.80384366e-03
      -8.81296769e-03 -5.55714453e-03 -7.62776425e-03 -6.74455427e-03
      -8.16670654e-04 4.24619811e-03 1.07656727e-02 4.65959962e-03
      -8.23012844e-04 -2.99373921e-03 -4.22833255e-04 -7.83534907e-03
      -3.04739620e-03 -1.54817651e-03 -2.29035737e-03 6.81672478e-03
      7.53502187e-04 8.66963249e-03 1.42985769e-02 2.99943029e-03
      -1.67711114e-03 -7.56048085e-03 -8.35244823e-03 -7.46442005e-03
      -5.36826113e-03 -3.26436013e-03 1.24159269e-03 1.31352814e-02
      -2.38674038e-04 -3.53167765e-03 -3.00934119e-03 -2.21202150e-03
      -2.22618505e-03 6.20555179e-03 1.06508154e-02 9.85157490e-03
      9.40225739e-03 4.55664052e-03 -3.08633340e-03 -9.06147528e-03
      -1.48972403e-02 -1.50647946e-02 -5.58614125e-03 7.82159902e-03
      1.20104039e-02 6.84779882e-03 -2.75632297e-03 -6.63337996e-03
      -7.30644073e-03 -9.44060180e-03 -5.94041916e-03 -2.25273706e-03
      9.57904663e-03 1.09396894e-02 7.35459430e-03 -7.68850034e-04
      -4.65620216e-03 -8.17108341e-03 -1.20342029e-02 -6.84418716e-04
      5.81795443e-03 7.97096547e-03 1.66313536e-02 6.43420080e-03
      1.49012078e-04 -4.10077721e-03 -8.18586815e-03 -1.31873153e-02
      -1.08261425e-02 -7.96820875e-03 1.20231826e-02 1.09824492e-02
      6.68312516e-03 -6.06773281e-03 -6.84539042e-03 -9.33496468e-03
      -1.41753964e-02 -4.74466803e-03 -4.43462562e-03 1.05126679e-03
      1.60059389e-02 6.53333170e-03 -4.55680816e-03 -6.19204016e-03
      -1.01387752e-02 -1.17756659e-02 -6.43847696e-03 -8.45636241e-04
      6.32733945e-03 1.05276657e-02 -4.58997302e-03 -1.91049278e-03
      -4.88724234e-03 2.94246571e-03 -2.95464555e-03 -2.89782253e-03
      -5.46089094e-03 8.19024630e-03 1.97708681e-02 -2.54509063e-03
      1.95267232e-04 3.96529678e-03 -1.03707500e-02 -1.24776186e-02
      -6.57774182e-03 -4.27177688e-03 -5.51859208e-04 1.04380678e-02
      -1.34987314e-03 -6.06463244e-03 -5.48763294e-03 3.21034458e-03
      -4.21754038e-03 -4.45285346e-03 3.16032884e-03 5.61618246e-03
      1.53756393e-02 6.09063078e-03 -3.88356717e-03 3.84217687e-03
      -3.17162019e-03 -1.00101589e-03 7.88926438e-04 8.57365876e-03
      1.03789270e-02 6.66536018e-03 -1.06739206e-03 -3.32531147e-03
      -7.57331215e-03 -5.64293843e-03 -4.83779097e-03 -2.71871337e-03
      2.65970523e-03 4.31479886e-03 1.01286322e-02 1.19378313e-03
      -3.83125478e-03 -5.75564941e-03 1.07837876e-03 2.43830425e-03
      -3.89394909e-03 -2.93466263e-03 4.03743656e-03 1.15507506e-02
      2.39452277e-03 5.06902579e-03 4.60625190e-04 1.89811795e-03
      3.77935125e-03 -9.54067160e-04 -1.04293681e-03 -4.09007352e-03
      1.08269239e-02 1.33733116e-02 1.06200799e-02 1.08196307e-02
      -2.59141484e-03 -3.77164036e-03 -2.17822497e-03 3.80643504e-03
      9.55141586e-05 7.01797521e-03 6.99994992e-03 1.62609736e-03
      -3.88982054e-03 -2.05371631e-04 2.96807499e-03 1.30325062e-02
      8.49181414e-03 -8.59029032e-03 4.25248872e-03 2.45325663e-03
      3.84874293e-04 -2.33604386e-03 3.80685669e-03 3.50386417e-03
      4.88566142e-03 -6.70195615e-04 -1.35121401e-02 1.67742558e-03
      5.19091357e-03 3.32287583e-03 8.58437363e-03 1.69751677e-03
      5.78850135e-03 1.24469250e-02 8.14376306e-03 -9.23395343e-03
      9.38878566e-06 -2.82598869e-03 -4.95963963e-03 5.90318523e-04
      6.59577223e-03 1.67815089e-02 2.05621496e-02 1.10303964e-02
      -7.30909780e-03 5.52259851e-03 5.98125486e-03 6.33535115e-03
      3.34992982e-03 1.26448547e-04 1.39434729e-02 1.68722030e-02
      2.97802663e-03 -9.50647891e-03 -6.39697630e-03 8.96259735e-04
      -1.04664930e-03 -9.46835033e-04 4.71805874e-03 1.67381186e-02
      1.94453616e-02 1.08169243e-02 -1.08954264e-02 -1.71750935e-03
      -1.73896854e-03 -3.61261796e-03 -1.52220589e-03 8.29418888e-04
      1.08188316e-02 1.28921699e-02 2.93766079e-03 -1.69023778e-02
      -1.66003015e-02 -4.39624069e-03 -2.77322577e-03 -6.63668429e-03
      -7.91760453e-04 1.17265489e-02 2.03306284e-02 1.50065785e-02
      -3.95292649e-03 -5.25140297e-03 -5.82940876e-03 -5.98098757e-03
      -4.15948406e-03 -3.93643742e-03 4.27078409e-03 1.26529271e-02
      1.79592352e-02 8.69233906e-03 -2.00553727e-03 -8.17614375e-04
      -5.31891128e-03 -8.17477144e-03 5.98200131e-04 1.35712447e-02
      2.22762916e-02 1.47953797e-02 -7.97973853e-03 -1.75770745e-02
      -6.72302581e-03 -5.34328539e-03 -5.33475773e-03 -6.25034980e-03
      5.46280807e-03 1.58787668e-02 1.29482243e-02 -7.93034385e-04
      -1.28509337e-02 -1.25302821e-02 -1.34419361e-02 -8.73199571e-03
      -4.78101475e-03 9.79314093e-04 5.62424725e-03 1.17896395e-02
      1.89945903e-02 1.03277694e-02 7.99691677e-03 -4.38920652e-05
      -4.80059395e-03 -9.81683563e-03 -1.02758501e-02 -3.80995544e-03
      5.20253787e-03 8.86472687e-03 8.58960021e-03 6.52967393e-03
      -4.12774459e-03 -6.47935830e-03 -6.49964530e-03 -4.54468158e-04
      7.18520954e-03 1.33793196e-02 5.93590643e-03 -6.14147773e-03
      -9.11095552e-03 -7.44974194e-03 -8.01055413e-03 -1.17022609e-02
      -7.39895180e-03 1.04242731e-02 1.24628888e-02 1.05860094e-02
      -1.13036903e-02 -6.66544214e-03 -1.32655911e-02 -1.05627915e-02
      -8.41905084e-03 -7.05979532e-03 -1.96398515e-03 1.80143618e-03
      1.49099724e-02 9.18955915e-03 7.67885707e-03 -4.22032364e-03
      -4.76237061e-03 -9.49113257e-03 -7.35184597e-03 -1.15756830e-03
      -5.30524971e-03 1.25812106e-02 1.46219339e-02 5.67638362e-03
      -5.65382186e-03 -4.52958234e-03 -7.36415200e-03 -5.31914737e-03
      9.11517162e-03 8.74462165e-03 1.41238347e-02 -1.07994629e-02
      -2.38980609e-03 -9.90200508e-03 -6.89103361e-03 -8.34910013e-03
      -6.92008389e-03 3.41937318e-03 -1.95373036e-03 1.25944773e-02
      8.05402175e-04 -4.06166585e-03 -1.27914380e-02 -5.42160962e-03
      -9.81487520e-03 -8.72534234e-03 -4.39546583e-03 -7.17787258e-03
      5.39464876e-03 9.31870192e-03 4.79339249e-03 -4.73785913e-03
      -4.23507020e-03 5.50900679e-03 2.39072973e-03 3.03876121e-04
      2.90593738e-03 -1.00199804e-05 9.47769545e-03 1.24757262e-02
      6.39248220e-03 3.03971465e-03 -8.72964226e-03 -5.76852355e-03
      -4.96826554e-03 -5.83392801e-03 2.24681292e-03 -2.48889509e-03
      -5.03703114e-03 -1.50325950e-02 -9.44695156e-03 2.67193443e-03
      6.36455743e-03 -1.78159610e-03 4.15037095e-04 -3.60806449e-03
      -5.52972592e-03 1.69282628e-03 -4.06595599e-03 -4.48568113e-04
      5.91595890e-03 5.92540111e-03 -5.73622249e-03 -5.17737586e-03
      -8.39381013e-03 -3.08578298e-03 1.10146101e-03 8.66823457e-03
      4.05841740e-03 7.93974847e-03 2.11017323e-03 3.04729887e-03
      2.28007347e-03 -3.94203933e-03 -8.23811046e-04 1.04439463e-02
      1.15005504e-02 1.09994076e-02 9.25962813e-03 1.05305240e-02
      5.61581946e-05 -1.11757554e-02 -7.44936708e-03 2.68970663e-03
      1.97357521e-03 1.08886072e-02 9.31318197e-03 7.74302799e-03
      2.38800002e-03 3.42266168e-03 -2.93459790e-03 -4.08534613e-03
      3.98832234e-03 7.54299248e-03 1.22052208e-02 8.78499541e-03
      3.18523124e-03 2.18295318e-04 4.11452493e-03 1.66276994e-03
      -2.12210207e-03 3.10086436e-03 3.23897949e-03 3.58019769e-03
      6.48649223e-03 2.25064531e-03 7.04031065e-03 1.12859625e-02
      4.63294098e-03 -6.38216082e-03 2.14757561e-03 -3.04798083e-03
      -2.71259202e-03 1.37095142e-03 3.61233996e-03 5.77299390e-04
      4.02929680e-03 -2.00585546e-05 -4.89680003e-03 2.27433979e-03
      -2.03935988e-03 2.01033172e-03 4.25119128e-04 1.75360544e-03
      9.27444547e-03 7.97796343e-03 -1.80763920e-04 -5.93269430e-03
      5.95074438e-04 2.66859308e-04 -2.56448984e-04 -2.31752498e-03
      6.80192560e-03 2.21490432e-02 2.58212946e-02 1.58718619e-02
      -3.12806864e-04 4.77168849e-03 -2.46250234e-03 -4.08332053e-05
      1.40150869e-03 2.31353147e-03 1.33775417e-02 1.53224077e-02
      7.02523580e-03 -1.11681987e-02 -1.03300959e-02 -1.37309893e-03
      -3.47918482e-03 -4.72166622e-03 4.73400345e-03 1.90736372e-02
      1.64073817e-02 9.38675087e-03 -5.71850128e-03 2.92623928e-03
      3.55916936e-03 1.40910258e-03 -4.33292426e-03 -5.54871047e-04
      9.07496363e-03 6.83839759e-03 -2.95095821e-03 -6.04325114e-03
      -1.73408433e-03 2.89697922e-03 -5.26589667e-03 -7.01857405e-03
      4.20833705e-03 1.55921960e-02 1.96561888e-02 1.13357324e-02
      5.62097121e-04 -1.07969148e-02 -2.38704192e-03 -4.24226699e-03
      -3.78930266e-03 -2.30936124e-03 7.33233988e-03 1.92917679e-02
      1.80522427e-02 2.46427511e-03 -1.06386617e-02 -1.27281202e-02
      -9.62205604e-03 -7.94878975e-03 7.33706634e-03 1.57902148e-02
      1.20114833e-02 -5.03916526e-04 2.57890322e-03 1.92527310e-03
      1.24807982e-03 -6.69604167e-03 -3.26527050e-03 -1.10010977e-03
      5.32159908e-03 1.51873650e-02 6.04158873e-03 -3.31227086e-03
      -7.63596781e-03 -8.30512121e-03 -9.45328549e-03 -1.13829086e-02
      -3.37749952e-04 3.86215467e-03 1.42915333e-02 1.90158617e-02
      9.86546278e-03 -4.88925818e-03 -1.14382980e-02 -7.96062406e-03
      -4.09127632e-03 -7.23232096e-03 -1.70207204e-04 9.75028891e-03
      1.45766661e-02 1.50548974e-02 -1.51651502e-02 -1.16872620e-02
      -1.28262788e-02 -9.77351423e-03 -8.57165491e-04 2.41491222e-03
      1.46465339e-02 1.61835998e-02 1.17138494e-02 -1.03670442e-02
      -1.01596816e-02 -7.12671503e-03 -4.35049599e-03 -4.69889957e-03
      -2.57704314e-03 4.30710102e-03 1.17296120e-02 1.42216291e-02
      -1.49074076e-02 -1.13111632e-02 -1.07819661e-02 -6.15753094e-03
      -6.57532923e-03 -2.68827891e-03 1.11352084e-02 8.07323493e-03
      9.99453291e-03 -1.61077753e-02 -6.33474812e-03 -9.96961538e-03
      -8.28919001e-03 -2.76282500e-03 1.70630834e-03 8.92916322e-03
      5.29156439e-03 9.64989513e-03 -2.02290341e-03 -6.36745535e-04
      -8.84891488e-03 -3.99369095e-03 -5.47061767e-03 6.78896147e-04
      6.54924288e-03 1.08456640e-02 9.64268297e-03 -1.19519802e-02
      -3.93057475e-03 -6.18124474e-03 -9.11557581e-03 -1.08598976e-03
      7.28143379e-03 9.36687645e-03 7.59510184e-03 8.34553409e-03
      1.78827159e-03 2.76258099e-04 -7.88932573e-03 -6.08477369e-03
      -5.63324289e-03 -3.47642438e-03 -1.70550914e-03 2.79050262e-04
      7.88699184e-03 -3.03076208e-03 -4.71381936e-03 -9.97017790e-03
      -8.15492868e-03 4.36778180e-03 5.53414738e-03 2.09858245e-03
      4.65979753e-03 3.45162535e-03 1.94208790e-03 3.13324085e-03
      2.80685187e-03 1.73799274e-03 -5.96637256e-04 6.59987517e-03
      -4.62346215e-04 -4.89568384e-03 3.67941591e-03 2.85233883e-03
      -7.88868498e-03 -8.98480974e-03 -4.14024899e-03 2.98325694e-03
      1.88298756e-03 -4.78110102e-04 5.43168373e-03 4.45155660e-03
      5.58570772e-03 -1.19289197e-03 1.63479199e-04 1.27266918e-03
      4.99951653e-03 8.54363758e-03 3.77184973e-04 -1.14893606e-02
      3.97900585e-03 3.73751950e-03 4.50119027e-04 5.83124906e-03
      5.18418616e-03 3.64718959e-03 7.83446897e-03 4.37171524e-03
      -9.02489014e-03 -3.57931945e-03 7.13113928e-03 3.11855925e-03
      7.02079292e-03 8.39120150e-03 8.24123994e-03 7.86104146e-03
      1.77019706e-03 -9.17587988e-03 7.57301541e-06 4.19959240e-03
      8.78536433e-04 -1.18152471e-03 2.34223972e-03 5.87342633e-03
      9.07429401e-03 -6.00725507e-05 -2.35931156e-03 -9.46064293e-03
      5.60090877e-03 1.73549028e-03 -3.89366032e-04 7.24641467e-03
      1.04064615e-02 7.84605183e-03 1.02447420e-02 -6.61535468e-03
      6.54605858e-04 7.67799560e-03 2.90445075e-03 6.62925607e-03
      8.07445031e-03 5.65255480e-03 1.14079416e-02 5.96978981e-03
      -8.07592180e-03 -8.08698125e-03 5.83842536e-03 1.20077911e-03
      2.85582501e-03 3.27320653e-03 8.58684257e-03 6.92145433e-03
      3.18977400e-03 -4.90790792e-03 -2.93433364e-03 9.10237152e-03
      1.01071266e-04 3.20827402e-03 9.38530825e-03 2.42992351e-03
      3.08870990e-03 -2.80621275e-03 -1.43209230e-02 -1.06481696e-02
      -2.11040862e-03 -4.42242762e-03 -4.01942432e-03 5.30929072e-04
      6.69732876e-03 1.60826314e-02 1.47507060e-02 8.99629435e-04
      -5.34620974e-03 9.77517292e-03 8.46275873e-03 2.83992174e-03
      1.36212038e-03 -2.57182983e-03 4.80707688e-03 6.64075185e-03
      -1.72701874e-03 6.01910427e-03 6.39569107e-03 7.27638882e-03
      -1.05929025e-03 -3.40112252e-03 5.46514103e-03 7.75250420e-03
      6.78884983e-03 -5.57438796e-03 -7.05313217e-03 4.79368633e-03
      4.72129416e-03 4.32723947e-03 4.58086282e-03 -6.78568496e-04
      -3.50290583e-03 -3.42138391e-03 -2.60088290e-03 5.41358627e-03
      2.37436849e-03 4.85760067e-03 4.22144961e-03 -1.27022597e-03
      4.60581202e-03 1.25790313e-02 1.19500142e-02 -1.97889376e-03
      4.29853983e-03 6.25304691e-03 4.05188883e-03 -2.52598641e-03
      -3.53424490e-04 -2.15109764e-03 9.77364741e-03 1.70222763e-02
      2.36412603e-03 2.78016715e-03 -4.27012704e-03 -5.30148484e-03
      -9.16544441e-03 -8.27988889e-03 1.05443445e-03 1.86817045e-03
      7.77233066e-03 2.85320170e-03 1.04140714e-02 4.75478405e-03
      6.88062515e-03 2.24318402e-03 -2.02368596e-03 -3.15632857e-03
      9.36801173e-03 1.73217934e-02 4.80335252e-03 -6.11635332e-04
      -4.00787452e-04 -9.96777439e-04 -5.45115164e-03 -7.43703404e-03
      -4.18355735e-03 4.39877575e-03 1.47867259e-02 1.22103496e-02
      8.76447838e-03 -1.01432335e-02 -8.16721004e-03 -6.73810206e-03
      -5.47064794e-03 -3.39831132e-03 -2.83625652e-03 6.89591339e-04
      9.06624924e-03 8.32957029e-03 -1.03059039e-02 -7.99901970e-03
      -8.00647680e-03 -3.45802912e-03 -2.80061457e-03 7.81355612e-03
      1.92729756e-02 1.22243995e-02 1.14682531e-02 -4.91164252e-03
      -5.34375431e-03 -9.23174527e-03 -4.46095224e-03 -5.28146932e-03
      4.86019300e-04 6.96661230e-03 5.92887821e-03 2.09271652e-03
      -6.74218964e-03 -5.59151638e-03 -1.07133016e-02 -7.13045802e-03
      -9.06693004e-03 -5.50106307e-03 -3.48439184e-03 4.19506477e-03
      8.75166990e-03 -8.48599337e-03 -6.23151660e-03 -5.67204040e-03
      -1.03424229e-02 -5.15066413e-03 5.30487671e-03 4.91267256e-03
      9.71759856e-03 7.49063445e-03 -3.09820962e-03 -4.03423794e-03
      -1.07509391e-02 -1.13398479e-02 -6.21859124e-03 -1.32183719e-03
      4.94596362e-03 6.43794239e-03 7.14474777e-03 -3.94072337e-03
      -3.32827447e-03 -3.99873313e-03 -7.09445123e-03 -9.26849898e-03
      1.17960037e-03 7.29502551e-03 1.02189090e-02 1.10472599e-02
      -9.48087964e-03 -8.35122913e-03 -1.23338383e-02 -1.33010671e-02
      3.82024026e-03 1.33200670e-02 6.55466458e-03 -5.71672863e-04
      4.71632183e-03 -2.56237923e-03 -6.48805639e-03 -6.06901059e-03
      -2.94744479e-03 1.35644723e-03 2.93113734e-03 5.37745422e-03
      8.61378387e-03 1.00889672e-02 2.93093082e-03 -2.58481619e-03
      1.75344024e-03 -2.83130049e-03 -4.74274624e-03 2.40981951e-03
      4.09895089e-03 5.13486657e-03 4.74822940e-03 -1.23932837e-02
      -1.12268655e-02 -1.16599761e-02 -9.76353139e-03 -9.79038049e-03
      -7.49376556e-03 2.82882992e-03 4.82865470e-03 7.58227054e-03
      -9.39567294e-03 -7.34204147e-03 -6.93539670e-03 -1.36819361e-02
      3.72428237e-03 7.45960372e-03 2.93230102e-03 -3.34654329e-03
      -7.02225463e-03 9.19808261e-03 5.66867786e-03 -5.85230126e-04
      5.37317595e-04 2.61221500e-03 8.93790647e-03 6.54915674e-03
      -8.14726669e-03 -1.10731348e-02 2.27337237e-03 3.05987592e-03
      2.89446861e-03 3.39493458e-03 9.40556079e-03 1.09083047e-02
      3.15115764e-03 -7.09817745e-03 -1.08954646e-02 6.61319727e-03
      8.49378388e-03 7.57241622e-03 1.17777437e-02 3.19276401e-03
      1.08125368e-02 7.31832720e-03 -8.94412212e-03 -1.34050902e-02
      -7.13187596e-03 8.53715371e-03 8.80668126e-03 7.52332201e-03
      2.81922752e-03 7.64296763e-03 1.08462572e-02 1.73126638e-04
      3.93321970e-04 1.20761236e-02 7.06047891e-03 7.49881379e-03
      6.61708135e-03 3.38045810e-03 3.71489325e-03 -3.28341289e-03
      -1.19993547e-02 -1.11305742e-02 -5.52637829e-03 -1.99396070e-03
      -3.85233958e-04 3.13552166e-03 -7.59802468e-04 6.07836479e-03
      9.62492358e-03 -4.86208731e-03 -3.83741828e-03 2.43392377e-03
      1.24205071e-02 1.39034679e-02 7.35354889e-03 1.72438368e-03
      -8.23775190e-05 -5.48051484e-03 -9.31726210e-03 -6.69106422e-03
      2.18519999e-04 9.39179771e-03 9.44872759e-03 3.08078085e-03
      7.72551214e-03 6.04839297e-03 3.67779983e-03 -4.93585737e-03
      -3.64315440e-03 -3.39129660e-03 9.37357731e-03 7.68467691e-03
      6.37562433e-03 2.45439494e-03 4.99672373e-04 -1.00679253e-03
      -5.66641793e-05 6.37053186e-03 -4.14959679e-04 6.99920952e-03
      1.01617230e-02 6.19001826e-03 -2.25209119e-03 -3.28231277e-03
      -3.81427119e-03 -2.51963764e-04 -1.45686645e-04 -5.19914960e-04
      1.00591192e-02 7.97583256e-03 7.70669198e-04 -1.61827728e-03
      8.90670402e-04 4.74945735e-03 -2.65122112e-03 7.47141149e-03
      -6.93395082e-03 2.02444219e-03 5.38237207e-03 2.07582116e-03
      1.77637022e-03 -8.94105062e-04 7.67130032e-03 5.44066168e-03
      3.60908406e-03 -2.99760583e-03 1.78297213e-03 4.60929470e-04
      -2.04011914e-03 -2.42796098e-03 1.60116621e-03 1.26378452e-02
      1.66373234e-03 7.83383090e-04 -1.27423194e-03 -3.75138572e-03
      -6.61116932e-03 -3.93738970e-03 4.07211017e-03 8.75878613e-03
      1.63370408e-02 9.04694013e-03 3.05321976e-03 -1.16840014e-02
      -5.76537941e-03 -7.43127777e-04 3.35037685e-03 1.23384804e-03
      5.20518981e-03 1.50854671e-02 7.18883611e-03 5.80577785e-03
      -3.74334422e-03 -4.72099101e-03 -4.77246800e-03 1.05502584e-03
      -4.04281961e-03 4.62287851e-03 1.39077967e-02 9.38341953e-03
      9.50018130e-03 -2.14744694e-04 -5.96215343e-03 -1.21468287e-02
      -6.69863541e-03 -5.03908750e-03 1.24966784e-03 5.70790935e-03
      1.19832446e-04 4.36461484e-03 -3.75532964e-03 -5.47877001e-03
      -1.34408101e-02 -1.07659465e-02 -2.21698429e-03 4.23056073e-03
      1.54560963e-02 1.84817072e-02 1.24843745e-02 1.94433925e-03
      -3.58763640e-03 -8.78321193e-03 -3.32569517e-03 -3.64879332e-03
      2.38899956e-03 1.15725845e-02 4.52868408e-03 7.21393013e-03
      -1.30848144e-03 -8.58734176e-03 -1.29672633e-02 -9.46941227e-03
      -2.60585267e-03 -5.88090625e-04 1.12851998e-02 5.67281619e-03
      1.01329200e-02 -2.47515342e-03 -7.63088325e-03 -5.09652635e-03
      -6.00856077e-03 -5.73128648e-03 -1.07502681e-03 9.95880179e-03
      1.25821009e-02 5.21480478e-03 -5.65358065e-03 -1.01939114e-02
      -1.29173715e-02 -8.24213400e-03 -5.62914927e-03 -1.39116775e-03
      8.24802462e-03 1.14137121e-02 1.37538398e-02 -5.79003477e-03
      -1.62479691e-02 -1.64525956e-02 -1.02336872e-02 -7.28976028e-03
      -2.78847083e-03 1.27325309e-02 1.62771251e-02 1.63547564e-02
      -3.13423877e-03 -1.63288657e-02 -2.03809906e-02 -1.26145426e-02
      -4.48313169e-03 -7.72141910e-04 1.09186862e-02 1.05959419e-02
      8.14197212e-03 -1.23243304e-02 -1.20508168e-02 -1.26837045e-02
      -6.28174888e-03 -6.65380061e-03 -3.06500192e-03 1.25779333e-02
      8.58043134e-03 6.65706117e-03 -1.21405870e-02 -9.62189212e-03
      -1.02504250e-02 -8.81184265e-03 -5.40689519e-03 -2.88435910e-03
      1.62376612e-02 1.09066060e-02 1.57913323e-02 -3.19481618e-03
      -1.09383753e-02 -1.05943577e-02 -4.77314135e-03 4.80359624e-04
      1.65392668e-03 1.34241683e-02 1.21084824e-02 1.45516098e-02
      -1.05053922e-02 -8.56320933e-03 -6.10049441e-03 -1.66599295e-06
      9.62897297e-03 7.93298800e-03 -7.37967144e-04 -9.53031797e-03
      -9.11226962e-03 7.57345883e-03 1.58979464e-02 1.40454359e-02
      1.30289355e-02 2.42034392e-03 3.63501417e-03 6.50963557e-05
      -1.83154698e-02 -2.00468674e-02 -6.68778643e-03 1.26880724e-02
      1.00930464e-02 5.43325255e-03 4.16577514e-03 3.65454610e-03
      1.00481859e-03 1.23781490e-03 4.10193997e-03 5.72918821e-03
      8.86280555e-03 5.65800816e-03 2.30643060e-03 -1.09835435e-03
      2.42824550e-03 -3.46772978e-03 -8.62119719e-03 -1.15477117e-02
      4.23824834e-03 1.22242421e-02 7.93659594e-03 -1.86375075e-03
      -3.89878085e-04 7.08164647e-03 6.10921066e-03 -7.32565438e-03
      -8.75388365e-03 7.96287693e-03 2.50684749e-02 1.75432395e-02
      2.76073045e-03 -6.85969414e-03 -5.77258226e-03 -8.21264088e-03
      -1.18541503e-02 -3.58554465e-03 2.92544276e-03 1.46764042e-02
      9.62928776e-03 -4.28570108e-03 2.40531444e-04 1.21364079e-03
      2.75161839e-03 -1.52384629e-02 -5.23683196e-03 1.12936422e-02
      2.87135113e-02 1.99625082e-02 1.10208488e-03 -8.86395201e-03
      -7.00957142e-03 -1.32708931e-02 -2.11613998e-02 -1.26734823e-02
      1.25874870e-03 1.45922126e-02 7.82857463e-03 -1.06274858e-02
      -3.54621094e-03 -6.01733336e-03 -3.54375062e-03 -6.08536368e-03
      3.38721648e-03 4.91118897e-03 1.55565329e-02 7.91882258e-03
      7.29703170e-04 1.70611823e-03 1.98468915e-03 8.46095011e-03
      3.32434173e-03 1.06206015e-02 -8.26464314e-03 2.60324776e-03
      4.94887587e-03 4.86068008e-03 1.06976822e-03 -3.92365642e-03
      -5.86770661e-03 -6.69342745e-03 3.65498418e-04 4.87293955e-03
      1.00410320e-02 1.53017761e-02 -1.12517539e-03 8.55385978e-03
      4.36692964e-03 9.44838673e-03 7.46118324e-03 1.02623496e-02
      -2.99542327e-03 -2.07058294e-03 8.03918019e-03 9.97571088e-03
      2.21986603e-03 4.10357397e-03 1.41609767e-02 6.79664174e-03
      -2.07008538e-03 -2.37798207e-02 -8.10612179e-03 -2.71252677e-04
      3.38777830e-03 2.17988528e-03 7.22829625e-03 2.48214696e-02
      1.24890348e-02 -1.09778659e-04 -1.36729190e-02 -9.52663552e-03
      -2.65343045e-03 3.48367891e-03 9.20323282e-03 4.18428285e-03
      1.63662564e-02 1.16846496e-02 5.19170007e-03 -1.30686201e-02
      -8.25969409e-03 1.71402807e-03 1.05605572e-02 1.01432269e-02
      9.05116182e-03 1.96299944e-02 7.34857703e-03 -5.34725143e-03
      -1.78766251e-02 -8.26822035e-03 -2.57753860e-03 7.39089539e-03
      -3.04668490e-03 6.79971278e-03 2.26338562e-02 2.25379858e-02
      8.68633017e-03 -5.43281762e-03 -7.08940485e-03 -3.57858674e-03
      -5.80537226e-03 -8.74136575e-03 6.64967857e-03 2.26803422e-02
      1.63601413e-02 5.07820537e-03 -6.50336267e-03 -6.76480168e-03
      -7.46416906e-03 -1.00920117e-02 5.33836195e-03 1.28082940e-02
      2.31782664e-02 1.26678729e-02 -4.34895372e-03 -1.64185502e-02
      -9.92209837e-03 -5.33411512e-03 5.90770796e-04 3.47980857e-03
      1.80714801e-02 3.06209866e-02 1.51924975e-02 -8.17248225e-03
      -1.42864399e-02 -1.06090531e-02 -9.11249034e-03 -1.41097582e-03
      -3.35693615e-03 2.32762890e-03 1.58479102e-02 1.34897539e-02
      6.84917159e-03 -1.02569936e-02 -1.21212769e-02 -7.69629423e-03
      -3.69007257e-03 -5.60027314e-03 1.45545206e-03 1.75660588e-02
      1.58293247e-02 1.11790905e-02 -6.07924536e-03 -9.34388023e-03
      -1.21349115e-02 -6.80683646e-03 1.35803444e-03 1.10218162e-02
      3.14826928e-02 1.15920622e-02 -1.31276227e-03 -1.55063225e-02
      -6.34784624e-03 -6.72663143e-03 1.35666516e-03 7.18504249e-04
      7.43493997e-03 2.11024452e-02 9.08676069e-03 4.10140492e-03
      -1.12553090e-02 -2.76946393e-03 -3.57019482e-03 1.92058051e-03
      -5.32177789e-03 -1.36922207e-03 9.84796230e-03 7.65864551e-03
      1.40932668e-02 -7.84780923e-03 -9.22295265e-03 -8.61631520e-03
      -6.21521613e-03 -8.70698830e-04 3.53864976e-03 9.37104225e-03
      8.03598762e-03 1.02108940e-02 -1.22550447e-02 -1.07032787e-02
      -4.60091513e-03 -4.64095874e-03 1.89168518e-03 4.32397425e-03
      1.32982386e-02 6.17550500e-03 8.21477827e-03 -8.93827993e-03
      -2.71730009e-03 -4.94271191e-03 8.30238219e-04 1.16298301e-03
      8.55743792e-03 1.94078945e-02 1.35834562e-02 7.25606084e-03
      -1.88813731e-02 -5.74592687e-03 -3.43829370e-03 -7.38223491e-04
      6.46417821e-03 6.53070537e-03 8.49964842e-03 4.95929038e-03
      5.31186303e-03 8.28873552e-03 1.09559426e-03 1.80871971e-03
      3.25661385e-03 3.10920738e-03 7.80065870e-03 -6.48424379e-04
      -7.11072376e-03 -1.01374718e-03 9.18629579e-03 1.28767742e-02
      1.77969027e-03 -5.49798179e-03 6.29838696e-03 9.47970711e-03
      9.75003187e-03 -2.37242039e-03 1.58570602e-03 2.23141559e-03
      -1.48730492e-03 -4.44953237e-03 1.11335551e-03 4.72318585e-04
      5.24080126e-03 2.90244981e-03 -5.33801131e-03 4.20151162e-04
      -1.55781221e-03 5.24252467e-03 -1.09533891e-02 -8.68658349e-03
      5.27217332e-03 3.72163905e-03 1.84639567e-03 -1.09467125e-02
      5.89368647e-05 9.96206794e-03 2.35530790e-02 6.89004827e-03
      -1.34962762e-03 -8.37218016e-03 -4.62884083e-03 -1.06236655e-02
      -1.63008273e-02 -1.17779970e-02 4.26161452e-04 7.45841023e-03
      7.94489123e-03 -6.52731815e-03 2.93015549e-03 8.71472713e-03
      3.50570725e-03 -1.57526776e-03 -2.01526913e-03 6.99287793e-03
      1.37528619e-02 -2.37219641e-03 -3.21714883e-03 -2.24020123e-03
      4.13739821e-03 5.46563417e-03 -4.10399633e-03 -9.12522059e-03
      -4.85543394e-03 6.50580414e-03 1.69299287e-03 -4.47764480e-03
      4.19311132e-03 1.63708883e-03 -3.23123997e-04 -3.28310486e-03
      -9.69274901e-03 -5.41056320e-03 7.11114286e-03 1.32917594e-02
      1.84268574e-03 1.47537030e-02 4.58420347e-03 1.20117003e-03
      2.12788698e-03 -8.26365594e-03 -1.36291087e-02 -2.04084767e-03
      1.09633217e-02 1.13401851e-02 1.04208598e-02 6.13042898e-03
      7.02278037e-03 -3.57953901e-03 -1.30366795e-02 -6.42775698e-03
      5.95422741e-03 1.33454641e-02 6.50348049e-03 1.72009096e-02
      2.56904191e-03 -1.63867266e-03 -1.00793121e-02 -9.49750002e-03
      -1.43972253e-02 3.69619369e-03 2.01953128e-02 1.95235871e-02
      1.54848695e-02 -6.26272231e-04 3.55287641e-03 5.04599418e-03
      -3.62616545e-03 -1.45594291e-02 -6.10051863e-03 6.65338803e-03
      1.42107541e-02 1.04574282e-02 9.37379338e-03 1.20988386e-02
      3.55249038e-03 -8.26070458e-03 -1.34349568e-02 -5.39088249e-03
      -1.53449783e-03 8.26155208e-03 2.03360915e-02 1.17253121e-02
      1.91777677e-03 -5.65155037e-03 -1.30404057e-02 -1.93857700e-02
      -3.32295639e-03 1.87598094e-02 2.29613651e-02 6.61607552e-03
      1.06900102e-02 7.26128370e-03 1.13525326e-04 -9.48552787e-03
      -1.61070898e-02 -3.20095662e-03 3.18939844e-03 9.56861023e-03
      8.64326674e-03 1.07416613e-02 1.77056435e-02 5.76955080e-03
      -1.10466322e-02 -1.63178537e-02 -7.61008123e-03 -1.49642746e-03
      8.17648601e-03 5.26371086e-03 1.38344746e-02 2.61896420e-02
      1.03670843e-02 -8.84230155e-03 -1.51775209e-02 -7.56891351e-03
      -6.58639893e-03 7.47987244e-04 9.35819186e-03 1.28444638e-02
      1.96215007e-02 -1.87967962e-03 -7.18987687e-03 -7.76532479e-03
      1.49848848e-03 1.47875363e-03 6.76947599e-03 -2.31672684e-03
      5.27105946e-03 1.91458222e-02 6.73826551e-03 -2.83675105e-03
      -1.24501912e-02 -4.42918157e-03 -5.47368266e-03 -1.99483335e-03
      1.33014889e-03 1.12912208e-02 2.12912783e-02 5.52115263e-03
      -6.67079771e-03 -1.82812419e-02 -6.06948696e-03 -8.28065630e-03
      -1.58332393e-03 1.45869527e-03 7.46153202e-03 1.31350709e-02
      -1.79836992e-03 -9.30842594e-04 -1.56056834e-02 -9.01927415e-04
      -5.09337056e-03 1.49060483e-03 -5.04026702e-03 7.18795811e-04
      1.89218856e-02 6.22835476e-03 5.39050158e-03 -1.24151539e-02
      -6.96533185e-04 -8.22945591e-03 -2.40067579e-03 6.94665592e-03
      1.41747845e-02 1.80580541e-02 8.48127715e-03 5.30802924e-03
      -4.64642840e-03 8.38481914e-03 1.32981071e-03 6.09519007e-03
      -1.05860538e-03 4.08981927e-03 8.32093507e-03 -6.85200910e-04
      1.86305388e-03 -1.18508739e-02 -4.71192831e-03 -5.09850169e-03
      1.09841360e-03 7.82416464e-05 3.49841523e-03 1.41443666e-02
      5.16495761e-03 -2.03448511e-03 -1.75316874e-02 -8.92350450e-03
      -6.65174052e-03 -5.23369946e-03 6.69086771e-03 1.46291200e-02
      1.87502969e-02 8.70681927e-03 2.33183731e-03 -8.15047603e-03
      5.40970452e-03 -7.71010877e-04 6.98453235e-03 6.85991673e-03
      1.23319831e-02 1.67895164e-02 3.76560073e-03 -3.15510016e-03
      -1.94613431e-02 -8.78107082e-03 -7.89786130e-03 3.19103478e-03
      9.89412423e-03 1.18079232e-02 1.31109562e-02 -3.00805690e-03
      4.61173616e-03 -6.37708989e-04 2.47826776e-03 -1.19799329e-03
      6.55335421e-03 8.53726640e-03 9.11234133e-03 9.24086571e-03
      -1.41139841e-03 3.58289317e-03 -1.04898270e-02 3.32190609e-03
      -7.21472502e-03 -1.46905440e-04 8.76220129e-03 2.14289827e-03
      4.42308327e-03 -6.82061957e-03 1.12039619e-03 -9.12605226e-03
      3.49886226e-03 2.47388310e-03 4.92506195e-03 8.56136158e-03
      6.92144316e-03 1.24433478e-02 2.68598599e-03 2.90218694e-03
      -1.16857709e-02 9.42929648e-04 -4.38194629e-03 5.45004942e-03
      3.10600433e-03 6.00248063e-03 5.99117251e-03 1.46644976e-04
      6.00880943e-04 -4.35327040e-03 3.00517352e-03 -4.38943878e-03
      -1.20506645e-03 1.20421499e-03 3.98994936e-03 8.84833653e-03
      4.13519656e-03 -7.26001663e-03 -9.20173153e-03 3.71855986e-03
      3.34579288e-03 -2.01742467e-03 9.08067171e-03 1.05794566e-02
      1.23583637e-02 2.42454093e-03 -5.08041121e-03 -1.43844690e-02
      2.32426752e-03 9.99844167e-04 5.50310686e-03 7.68315326e-03
      7.33097363e-03 1.15918880e-02 3.52121377e-03 -6.82204636e-03
      -1.41771510e-02 4.27308492e-03 5.09212399e-03 3.77196097e-03
      5.26414299e-03 -1.98196387e-03 -6.44686632e-04 -1.00711714e-02
      -7.05025997e-03 -5.45293931e-03 1.17102815e-02 1.38621759e-02
      4.46172245e-03 1.36065912e-02 -1.10231608e-03 -1.07640969e-02
      -1.88470092e-02 -1.41115841e-02 -1.60436034e-02 3.75144556e-03
      1.70644354e-02 1.14810755e-02 5.13975788e-03 4.10513137e-04
      3.65314912e-03 -8.40404537e-03 -3.16791213e-03 -1.67191122e-03
      1.24871181e-02 1.75568573e-02 1.26300566e-02 1.02262376e-02
      -1.40574214e-03 2.55928870e-04 -9.38796904e-03 -1.01062646e-02
      -3.90648330e-03 1.65188070e-02 2.52704509e-02 2.03078575e-02
      2.10256837e-02 8.33674055e-03 4.83111013e-04 -7.97906052e-03
      -1.23342173e-02 -1.71500910e-02 -1.12242927e-03 1.77615415e-02
      2.07529254e-02 1.30096870e-02 1.11889839e-02 7.95433018e-03
      -7.72412494e-03 -1.14390757e-02 -1.23085547e-02 -1.73271133e-03
      3.45762377e-03 1.20578958e-02 1.65578239e-02 5.88356284e-03
      3.69029981e-03 -7.54328771e-03 -1.36847328e-02 -7.49851903e-03
      1.79007149e-03 1.73538085e-02 2.34708972e-02 1.61060672e-02
      1.02752047e-02 9.86157567e-04 -9.81278345e-03 -8.21826421e-03
      -9.38147120e-03 2.90786196e-03 5.94743388e-03 1.48890130e-02
      5.49652195e-03 9.97430831e-03 9.23319347e-03 -7.57715711e-03
      -1.29661132e-02 -9.71480738e-03 -1.26599625e-03 1.37353991e-03
      6.17025141e-03 -3.46495723e-03 7.16410065e-03 1.29366573e-02
      -2.31956039e-03 -9.28834453e-03 -7.84013979e-03 -5.74264326e-04
      -6.91584870e-03 -3.78207443e-03 1.13867940e-02 1.83313098e-02
      7.42725097e-03 -8.43588449e-03 -1.15461349e-02 -5.90411294e-03
      4.00834251e-03 2.66251923e-03 7.00207474e-03 1.48423547e-02
      1.94886718e-02 2.30009127e-02 7.61720445e-03 -2.80356873e-03
      2.72914511e-03 1.19728334e-02 2.97441171e-03 6.46979129e-03
      -9.02409013e-03 -6.46301545e-03 -2.31007070e-04 -8.64338130e-03
      -8.63403827e-03 -1.25440871e-02 -9.91787645e-04 -1.08737089e-02
      -9.04963817e-03 7.54109072e-03 6.73730997e-03 4.82222205e-03
      -1.92183803e-03 -7.29196845e-03 -7.25878729e-03 4.42796573e-03
      -9.64895997e-04 -2.72040925e-04 1.32232415e-03 9.11813322e-03
      1.56323127e-02 1.93571823e-03 -4.49453900e-03 -1.92678344e-04
      4.17073141e-04 -4.11075447e-03 -3.36188218e-03 1.73204839e-02
      2.46894453e-02 2.36474350e-02 1.28132664e-02 5.66561613e-03
      1.99429528e-03 -8.31555401e-04 7.56129855e-03 1.52791068e-02
      9.94681753e-03 1.02461139e-02 1.27668846e-02 -2.14001769e-03
      -6.56122249e-03 -1.37145752e-02 -5.41357324e-03 -5.87629108e-03
      3.34233139e-03 3.52517446e-03 5.76607883e-03 7.93442596e-03
      -6.15049340e-03 -1.53973447e-02 -2.13085655e-02 -1.26826316e-02
      -1.21808741e-02 4.23345598e-04 2.38313545e-02 2.45219432e-02
      2.40657497e-02 7.59802060e-03 -4.15831013e-03 -9.77425277e-03
      -3.86264781e-03 1.10243643e-02 1.69519205e-02 1.44284852e-02
      1.06475996e-02 1.31436167e-02 2.66582036e-04 -1.12941219e-02
      -1.53010041e-02 -2.97533278e-03 1.01632383e-02 1.24012018e-02
      4.43961890e-03 2.95417919e-03 6.45399326e-03 -5.90404728e-03
      -1.70822418e-03 -8.52619112e-03 2.51528341e-03 4.64396831e-03
      4.64929454e-03 3.24381655e-03 1.11372722e-02 1.29533978e-02
      -9.33591218e-04 -1.08652664e-02 -1.59086604e-02 -2.44631246e-03
      1.11621944e-03 -2.80784164e-03 9.18298867e-03 1.30180586e-02
      2.21151952e-02 1.87318784e-03 6.06309995e-03 6.38429495e-03
      1.34620098e-02 1.13234883e-02 8.19089636e-03 1.16014155e-02
      1.89629942e-02 1.54571058e-02 -3.65078653e-04 -2.99385726e-03
      -3.08473688e-03 5.16215013e-03 9.20657068e-03 9.97265056e-03
      9.42684058e-03 1.09317526e-02 8.79041757e-03 -3.29030515e-03
      -1.07257385e-02 -1.58114731e-02 6.94272749e-04 5.94818173e-03
      9.74243134e-03 9.56922770e-03 8.61801580e-03 7.17545813e-03
      2.26472132e-03 -8.70940182e-03 -1.15482705e-02 -2.20333715e-03
      5.43697923e-03 4.82521020e-03 6.28924510e-03 1.22432625e-02
      9.75876302e-03 2.36829207e-03 -7.21508730e-03 -6.23239391e-03
      4.63236123e-03 7.66741950e-03 6.80320570e-03 1.06863137e-02
      6.98919781e-03 8.81053228e-03 8.08667764e-03 -3.95967020e-03
      -1.15183191e-02 3.52971978e-03 3.41818877e-03 6.06213184e-03
      1.26731209e-02 1.26887567e-03 5.71274711e-03 3.65230604e-03
      2.69734790e-03 -2.87446752e-03 1.32553326e-02 1.65503640e-02
      1.17422473e-02 8.72823503e-03 -2.21828977e-03 3.49135633e-04
      -2.86667109e-05 -8.89527239e-03 -2.04754365e-03 1.31142354e-02
      1.76489651e-02 1.60974488e-02 1.26813846e-02 2.82359170e-03
      3.75720835e-03 2.66735815e-03 1.82031142e-03 -3.25468415e-03
      8.48783832e-03 8.30195658e-03 7.80880312e-03 4.25220467e-03
      -9.77124204e-04 4.20417375e-04 -2.56685261e-03 -3.33919888e-03
      -6.06877590e-03 -2.86760088e-03 3.53085692e-03 1.01339854e-02
      1.25444643e-02 1.68914068e-03 5.14948508e-03 -1.55994180e-03
      -4.48522298e-03 5.25231648e-04 7.57490937e-03 1.54493358e-02
      1.74614973e-02 1.27853118e-02 8.83316807e-03 2.09291419e-03
      -7.36840814e-03 -4.76258714e-03 -2.95843976e-03 3.59197170e-03
      5.39852772e-03 8.29335209e-03 2.14760238e-03 -1.48522668e-03
      6.26055570e-03 1.95992389e-03 -9.77835851e-04 3.43323243e-03
      3.26613546e-03 8.71706475e-03 1.45662092e-02 3.27786338e-03
      3.90606024e-03 1.26127796e-02 5.27411047e-03 -4.25914302e-03
      -4.82898206e-03 3.96737974e-04 3.12776631e-03 6.80660410e-03
      9.26747080e-03 1.52547900e-02 3.43464734e-03 -1.38814850e-02
      -1.80352498e-02 -1.36619005e-02 -1.79104740e-03 4.10825101e-04
      4.96462872e-03 1.32135767e-02 2.47199163e-02 1.75476912e-02
      3.04339407e-03 -6.71958923e-03 -3.08305584e-03 5.87278930e-03
      3.13731562e-03 4.70683677e-03 6.11226680e-03 1.41537040e-02
      9.31397360e-03 -2.92226952e-03 -1.62264071e-02 -1.78325195e-02
      -5.52224601e-03 -4.16185794e-04 5.03784791e-03 2.11018939e-02
      2.62835566e-02 1.57556217e-02 7.44882156e-04 -1.23341810e-02
      -9.59960464e-03 3.24851461e-03 5.70420548e-03 7.17964722e-03
      2.58802832e-03 1.47227617e-02 9.94736236e-03 1.43753155e-03
      -1.14159221e-02 -5.44718094e-03 -7.69626163e-03 -4.41985903e-03
      -5.02721779e-03 1.34678148e-02 1.60813667e-02 1.56314932e-02
      7.68941082e-03 -6.97570737e-04 -3.99536919e-03 -6.43697148e-03
      3.90499132e-03 7.46622961e-03 7.59845506e-03 1.13598006e-02
      5.76948561e-03 -7.66663486e-03 -1.27989063e-02 -7.86700938e-03
      -5.75608015e-03 -3.61226033e-03 -2.32099579e-03 2.39850394e-03
      5.09923184e-03 2.28296546e-03 -6.96821092e-03 -1.00019742e-02
      -6.86888117e-03 -8.96913745e-03 -1.89135072e-03 1.96606503e-03
      2.06182618e-02 2.22834554e-02 2.44871695e-02 4.62764129e-03
      -3.85155971e-03 -5.21245040e-03 -4.86225821e-03 9.85761825e-03
      1.44965816e-02 1.16398511e-02 1.27721094e-02 1.24201495e-02
      1.89314666e-03 -8.19625147e-03 -7.45082879e-03 -1.78018550e-03
      6.93863397e-03 1.14050834e-02 7.52492854e-03 7.37075182e-03
      7.18953833e-03 -7.09798536e-04 -1.07661569e-02 -1.07991276e-02
      -1.23929121e-02 -6.56717282e-04 8.86879209e-03 5.91887161e-03
      1.99502800e-03 1.80213957e-03 -5.63286664e-03 -1.26139270e-02
      -1.01247253e-02 -9.04267840e-03 -2.31985981e-03 4.51867841e-03
      5.16854832e-03 5.46624418e-03 1.35961156e-02 -5.98573918e-03
      -1.91913475e-03 6.47589890e-03 1.38618005e-02 1.26938326e-02
      7.86806829e-03 -3.54825752e-04 5.54722967e-03 1.45078534e-02
      -4.67802258e-03 -1.07896412e-02 -1.29560176e-02 1.39967399e-03
      3.94269964e-03 8.79392261e-04 1.02371089e-02 8.49043019e-03
      1.60126910e-02 -9.60344187e-05 6.54521910e-03 1.25839552e-02
      2.10925862e-02 1.93964951e-02 1.57794766e-02 3.63741885e-03
      1.12634934e-02 2.06093080e-02 8.08733888e-03 -5.85979642e-03
      -7.86718447e-03 6.82245102e-03 7.89099000e-03 9.03984439e-03
      8.48854240e-03 1.25617431e-02 1.68670602e-02 7.11370260e-03
      -4.12001554e-03 -5.37082041e-03 5.19757066e-03 4.19928273e-03
      3.22389742e-03 7.08576804e-03 9.31263622e-03 1.05577335e-02
      8.65823939e-04 -1.14584202e-02 -1.93712600e-02 -4.57051815e-03
      -5.89131424e-03 -1.76759693e-03 7.42459064e-03 1.61701385e-02
      2.14917585e-02 1.14683080e-02 -2.88779149e-03 -2.13238201e-03
      6.66322885e-03 5.69333648e-03 3.71504040e-03 3.13215214e-03
      1.10860318e-02 1.77453831e-02 1.04781026e-02 -5.48494463e-05
      -9.36839357e-03 -8.81682674e-04 -2.58595985e-03 -1.72138121e-03
      8.96384101e-03 5.61706908e-03 6.87998487e-03 4.74778982e-03
      5.20166662e-03 2.76216608e-03 3.34791956e-03 1.00589462e-03
      4.93654562e-03 5.30403154e-03 1.31701329e-03 -3.64130782e-03
      -8.44981056e-04 8.18435859e-04 -4.01569996e-03 -2.23074364e-03
      2.70553189e-03 8.01595580e-03 5.71351405e-03 8.74200743e-03
      1.32858390e-02 1.42632732e-02 8.61469097e-03 4.42979019e-03
      2.09706649e-03 2.71051913e-03 5.12990169e-03 -6.46582484e-05
      -6.59135450e-03 -2.20787222e-03 -1.75088539e-03 2.79265980e-04
      -8.04526173e-03 -6.10423100e-04 4.65887459e-03 1.59794162e-03
      3.42504913e-03 3.49979615e-03 4.34472831e-03 8.18202645e-03
      7.44620524e-03 5.36604831e-03 3.65568791e-03 7.22781289e-03
      9.59789939e-03 1.48415135e-03 5.05719148e-03 1.31299533e-02
      8.21604021e-03 -2.77915795e-04 -5.14575932e-03 9.73726856e-04
      7.96957035e-03 7.99581036e-03 2.57294415e-03 2.29967161e-04
      7.41542224e-03 3.68500873e-03 5.51851047e-03 -2.59564072e-03
      2.72531412e-03 6.94140280e-03 1.54024432e-03 3.88191477e-03
      4.30032174e-04 4.64855490e-04 -5.50271012e-03 -3.25161824e-03
      -5.81328711e-03 -4.46928013e-03 5.92737785e-03 5.09068929e-03
      8.24794732e-03 1.02070076e-02 1.36607755e-02 1.37348531e-03
      -8.68174341e-03 -9.54721030e-03 4.25494229e-03 1.09806666e-02
      1.38562387e-02 1.52536603e-02 2.07732115e-02 2.01782100e-02
      -8.23716912e-03 -3.43702501e-03 -5.79154911e-03 1.22802816e-02
      1.22742597e-02 1.11573702e-02 1.10314200e-02 4.50666388e-03
      4.65992838e-03 -8.30427278e-03 -9.18620359e-03 -9.97321866e-03
      -1.52663502e-03 6.82710903e-03 1.17590148e-02 4.98127053e-03
      1.05340686e-02 1.07279019e-02 -6.43177237e-03 -3.68818128e-03
      -1.05918162e-02 5.26767178e-03 8.24591611e-03 5.78327989e-03
      9.32669267e-03 1.30993603e-02 1.80721115e-02 -5.19024674e-03
      -3.75928212e-04 -1.71661738e-03 8.47070012e-03 4.65995120e-03
      3.42343096e-03 2.14551948e-03 6.21500658e-03 9.06145759e-03
      -3.55550437e-03 3.99930682e-03 -2.53248028e-03 6.36429247e-03
      4.31700051e-03 4.33462951e-03 3.30158276e-03 7.01126130e-03
      1.16428547e-02 -1.54973092e-02 -8.56784079e-03 -1.10190501e-02
      3.30105121e-03 4.39645955e-03 3.28184757e-03 -4.92146099e-03
      9.21360988e-05 2.78417906e-03 -1.20732710e-02 -1.05084470e-02
      -1.09536480e-02 -1.25048286e-03 -5.46846539e-03 -4.23994707e-03
      8.07823800e-03 8.17042030e-03 9.26350243e-03 5.46381110e-03
      -3.54558905e-03 -1.45836566e-05 -1.30578829e-03 5.06140059e-03
      1.02842404e-02 1.15739862e-02 1.78681512e-03 3.97402048e-03
      -4.51533729e-03 -3.18987877e-03 1.13218802e-03 1.01457094e-03
      6.37678010e-03 8.20289645e-03 -4.22259746e-03 -4.11696406e-03
      1.62650261e-03 -7.89437257e-03 -5.64118556e-04 -2.77582579e-03
      3.48758977e-03 -2.16177068e-04 8.89671210e-04 -2.59115594e-03
      -8.81103054e-03 -2.58880830e-03 -1.18884379e-02 -7.54734874e-03
      5.20949950e-04 6.32760208e-03 -6.93884795e-04 -4.30034241e-03</_></support_vectors>
  <decision_functions>
    <_>
      <sv_count>1</sv_count>
      <rho>1.1337388240461366e+00</rho>
      <alpha>
        1.</alpha></_></decision_functions></opencv_ml_svm>
</opencv_storage>
